0 -1.1706558569325989 0.13514975869797827 -0.1743397321605572 0.1638677059223544 0.04024257576890232 -0.2665215777892018 0.35885297430019464 -0.11911524424502465 0.2434329281368045 0.04733769627731905 -0.2523686300376045 -0.2795925329519508 0.2168056197336018 -0.00535969761627521 0.16793579995359298 0.12123208951654435 -0.0422246428637742 0.20609235984771637 0.06364252311942825 0.23595739135118052 0.22343330846710124 0.24960828184227826 0.16964028220700272 0.1317779094844938 0.05837915987347619 0.07593517545050943 -0.06271462811704939 -0.2545610943090619 0.0018904234883843195 0.04411914816515342 0.13208298351373376 0.20311191895476732 -0.02163071437205 0.02792693284933127 0.03422713387197643 0.10019512353394516 0.1791538608735 2.9817612195935603 3.065599681717437 2.9268339726507326 3.016755270835746 3.4931887320811077 2.6694180165926635 1.8291367494990536 1.2142901455947894 0.7108594469939306 0.6553716331011493 0.23948045752567892 0.5330667983442232 0.8036449955489935 1.14015120931634 1.2645547033210496 0.4929759640776244 0.09042928504054418 0.4666421450862397 0.6494284565678414 0.34148117713258197 0.3074958563646269 0.29771751998025836 0.5834451535717731 0.4914572675970442 0.394996795511175 -0.10027647210944504 -0.391662870262669 0.03138825687864174 0.6164407039556937 0.6182818311893261 0.8691932091557841 1.5297780939575072 1.5100409175028615 2.8821112304826118 3.103267525969434 3.436612192435437 0.3 0.3 0.3 0.3 0.3 0.3 0.3 0.3 0.3 0.3 0.3 0.3 0.3 0.3 0.3 0.3 0.3 0.3 0.3 0.3 0.3 0.3 0.3 0.3 0.3 0.3 0.3 0.3 0.3 0.3 0.3 0.3 0.3 0.3 0.3 0.3 0.3 0.3 0.3 0.3 0.3 0.3 0.3 0.3 0.3 0.3 0.3 0.3 0.3 0.3 0.3 0.3 0.3 0.3 0.3 0.3 0.3 0.3 0.3 0.3 0.3 0.3 0.3 0.3 0.3 0.3 0.3 0.3 0.3 0.3 0.3 0.3 
1 -0.8016923689190908 0.12699540929299677 -0.20145979776347556 -0.01189862296345745 0.2081891882634816 0.022888430444191425 0.12036417346474038 0.1224102883882426 0.15625233691886042 0.12286827212622453 0.10083142859602043 0.07853012859469846 0.08367960114376728 0.02515228487204233 -0.01092980390026558 0.05209425729725373 0.055450615315971896 0.03622029420903232 0.09133442633776293 0.17514067212368895 0.13882914245392322 0.14585829451443114 0.1889799870501454 0.1215535011134879 0.19110276431486145 0.26745817004790773 0.03803535100646946 0.034575375078647136 -0.06371898535571378 0.04148057616601799 0.11183253720411192 -0.2914419367228077 -0.26978603112811617 -0.4253517110783578 -0.34580730673880106 -0.0046444927085679995 0.02171887464086023 0.13323199408236314 0.13185184315346005 -0.12115442599981485 0.444784444997582 0.12020495481951957 -0.02277433612160827 0.026327350172621555 -0.2748533349756951 -0.012711464558660904 0.1867021350148084 0.5401562741458052 0.5202874569682313 0.5486145937608987 -0.12739826907093857 0.22709431425676047 0.28951340274764475 0.06932962744439285 0.4259903211942472 1.0110186613248318 1.0397220835039795 1.0689647644672156 1.5763080154062865 2.222659390940738 2.9101881386370505 2.902109475867732 3.247072340726462 3.4180696793982066 3.71184025050115 3.1086170900337624 3.329878513556869 3.3216254997986217 2.771088494849506 1.6423756839023416 1.11553269525216 1.03003146803296 0.36171330271876756 0.3 0.3 0.3 0.3 0.3 0.3 0.3 0.3 0.3 0.3 0.3 0.3 0.3 0.3 0.3 0.3 0.3 0.3 0.3 0.3 0.3 0.3 0.3 0.3 0.3 0.3 0.3 0.3 0.3 0.3 0.3 0.3 0.3 0.3 0.3 0.3 0.3 0.3 0.3 0.3 0.3 0.3 0.3 0.3 0.3 0.3 0.3 0.3 0.3 0.3 0.3 0.3 0.3 0.3 0.3 0.3 0.3 0.3 0.3 0.3 0.3 0.3 0.3 0.3 0.3 0.3 0.3 0.3 0.3 0.3 0.3 0.3 
2 0.5842188071303875 0.36159276562222115 0.11901908896345158 0.1789984156362955 0.13075907582574978 0.23405766455785532 0.2522580571965657 0.22502904476560628 0.34744342333493194 0.4908392685874383 0.2610065175417315 -0.007667620537813274 -0.07854707310400097 -0.1942090566935673 -0.1186457136869029 -0.15261753966295596 -0.244867581304936 -0.06817653202190595 -0.16567931896525487 -0.09785170284824699 -0.13567801082065267 -0.12528842038661564 -0.20483185911472435 -0.29072861154280194 -0.41284401591035946 -0.2211138667296561 -0.21575681145408682 -0.410155717753838 -0.17626904703373755 -0.11023623554012046 -0.10400002357423688 -0.20091439628308744 0.02702198887529868 0.03898086945255651 0.04829417114991063 0.2546474638425666 0.37365209628381235 0.6102022844782394 0.4930953737139226 0.9917434803335627 0.4391833137085688 0.5296939455391905 0.23439021704945537 0.4810548998040553 0.38881295187153225 0.40591792447841035 0.05083701948522931 1.0570553359366737 1.7898380808273546 1.407715169680264 2.5969118584229536 2.683201044371871 3.0899097498828194 2.4772336753788475 3.2722273184408217 3.55600767201375 2.4185426928298708 3.506501888861294 3.2634361783029244 2.356627625758538 1.6481180626270167 0.6304082814213929 0.29137119817551105 0.2669961422642032 -0.23227741817139236 0.5191437554028782 0.20906898422394216 0.04997875905349492 0.34603950554503676 0.23590570209817796 0.6202789621792655 0.7042185132611062 0.645716269961678 0.3 0.3 0.3 0.3 0.3 0.3 0.3 0.3 0.3 0.3 0.3 0.3 0.3 0.3 0.3 0.3 0.3 0.3 0.3 0.3 0.3 0.3 0.3 0.3 0.3 0.3 0.3 0.3 0.3 0.3 0.3 0.3 0.3 0.3 0.3 0.3 0.3 0.3 0.3 0.3 0.3 0.3 0.3 0.3 0.3 0.3 0.3 0.3 0.3 0.3 0.3 0.3 0.3 0.3 0.3 0.3 0.3 0.3 0.3 0.3 0.3 0.3 0.3 0.3 0.3 0.3 0.3 0.3 0.3 0.3 0.3 0.3 
3 0.30906849004656883 0.20127226704549325 -0.6154007059407263 -0.13093253166257585 -0.06840678020868048 -0.15648609003374161 -0.07655317415678428 -0.5352186518998051 -0.40705726559848815 -0.5318719586283539 -0.2370083355561498 -0.18124958132367353 -0.19180124894098652 -0.20529407531285324 -0.19835766187776446 -0.12088320705631254 -0.16664746550599374 -0.16714573872933147 -0.13386486327680455 0.1468124512979735 0.1006882897018192 0.06371599465131819 0.09718971593343559 0.033163257562434 0.029371529595421424 0.21621438088583225 0.1275747994606553 -0.10913744197016007 0.1975236301446165 0.13419649313013957 0.10174083863995964 0.3026976324303561 0.3192834794138632 0.36528625516107105 0.24494638430125046 0.11858734627150677 0.20676328225860566 0.7561731324831193 0.6855854684227806 0.6484854893504252 0.7950892480475465 1.6828934947148289 2.1204943331146926 2.991154675233791 2.910499417878191 3.3959373911259685 3.5541656339917975 3.128792830085338 3.275836792157726 2.216989075319067 1.716200822768715 1.1924801376626966 1.426806280935764 0.8991066576201703 0.47774280326443863 0.4707898947084127 0.5138684700343518 0.3680179147756675 0.09765482783478463 0.2123097395212473 0.0816209133300182 0.43889453816119567 0.31065648727468925 0.3234712803968483 0.45899914086320937 -0.06645848005181972 0.11678716014691715 0.12117492129804622 -0.3258440837765627 -0.38333623454886606 0.9024163302468037 0.5202628563612455 0.7343416125662959 0.3 0.3 0.3 0.3 0.3 0.3 0.3 0.3 0.3 0.3 0.3 0.3 0.3 0.3 0.3 0.3 0.3 0.3 0.3 0.3 0.3 0.3 0.3 0.3 0.3 0.3 0.3 0.3 0.3 0.3 0.3 0.3 0.3 0.3 0.3 0.3 0.3 0.3 0.3 0.3 0.3 0.3 0.3 0.3 0.3 0.3 0.3 0.3 0.3 0.3 0.3 0.3 0.3 0.3 0.3 0.3 0.3 0.3 0.3 0.3 0.3 0.3 0.3 0.3 0.3 0.3 0.3 0.3 0.3 0.3 0.3 0.3 

First working:
0 0.020726072052900987 -0.6842624437817665 -0.8322178963634491 0.10566017382594449 0.15089632504415476 0.18369661460146544 0.7248089127493176 0.22686603932472849 -0.13694146717427635 -0.13281686886881358 0.08040692202014421 -0.20920585044773227 0.3889861462834544 0.28155165113969916 0.40682990965255045 0.38011648135959286 -0.17086558891280845 0.24153587540862925 -0.10728400606881244 0.3354036281886248 0.24086048800636028 0.013635075234739634 0.16944710977851551 0.33211248195106247 0.005022045817491199 0.18652433579887484 -0.025303871801306447 -0.15269015092221436 -0.020141039786678642 -0.3973209549961321 -0.16935517410711726 0.09329524723534448 0.02046935599675068 0.07258804007746733 0.14742573336258602 -0.34996460393684753 -0.27922213870210383 3.6627790857085105 3.344268335576697 3.8327252522215383 2.792878709165391 3.611278273021706 2.480436456416552 1.04638582430744 1.0974000859791386 1.0634400489573832 1.0722401675513296 -0.11573777039322056 0.6583386474002563 0.6761465405712385 0.1370469919611418 0.5313007060745751 0.5432442919009187 0.14643535258567011 1.4431385591517565 0.8607324061440584 0.5167236950989131 -0.24327504427360794 0.4802431398400506 0.5665987473500212 0.6681858621320848 0.06764521636296265 0.9393065660116812 0.20072774800570198 -0.1564581731676016 0.9916700332973858 1.3320719665990761 2.087561011620486 2.297386787954405 2.235542214045753 3.7559287930610146 4.077805322572365 2.2348940922411717 0.3 0.3 0.3 0.3 0.3 0.3 0.3 0.3 0.3 0.3 0.3 0.3 0.3 0.3 0.3 0.3 0.3 0.3 0.3 0.3 0.3 0.3 0.3 0.3 0.3 0.3 0.3 0.3 0.3 0.3 0.3 0.3 0.3 0.3 0.3 0.3 -0.4202006017987835 -0.5101890945269125 -1.073540052725768 -0.2551218378181427 -0.5742170635885886 -0.5104875372134592 -0.15284007921285075 0.05084423897466418 -0.42424672525585233 -0.6462008922627186 -0.23216284911372523 0.08605792581214264 -0.31131464719210433 0.03274751174611648 -0.14151932318392488 -0.08052617003366361 -0.2003259359884678 -0.3022749812275672 0.41080752978353924 0.23715015710252074 -0.4415824128209927 -0.31026659055156497 0.04755179473228817 0.05595320832369226 0.36255212782296853 -0.0711792940842152 -0.19981327438732732 -0.30091067310526987 -0.1277449641197423 -0.42776932871919626 -0.5375490458159601 -0.3666178540352829 -1.225406215157064 -1.0004601256192351 -0.9116056989321506 0.02656495449736871 
1 0.33723501338002426 0.3427917494508699 -0.17468723234748737 -0.15150815373224252 0.49894772014955563 -0.21920446348086436 -0.04846926908072459 0.3383718815585876 0.3251801828531807 0.1999925327192208 0.48742180456495077 0.12177760442225244 0.22791439736617863 0.4505067464114775 0.20432438403687866 0.0753349548796438 0.11863709231932419 -0.26967298026178477 -0.08993095710571976 0.20473733970995622 -0.24398241408768567 -0.20897721470370967 -0.1624902867645858 0.015092377386397852 -0.05865319371675955 0.07760796933307226 -0.22384314525162366 0.10324622233508543 -0.2950231514866584 -0.542193266435605 -0.29203817285589334 -0.31192015175285226 -0.1574156640991754 -0.17179966127628468 -0.028199258112381446 0.3035140877695117 0.051365071473297844 0.419368197942805 0.9544811990751826 0.4812569210450262 0.5686675128544714 0.645935611004758 1.5497495719045749 0.6745695956552304 0.017965625016049192 0.7559726592239614 0.16122293236781965 1.0831960596439834 1.000073474004377 0.7829829531175789 0.4208905778313792 0.5250091343043793 -0.07545830871148093 0.45613229089287904 0.9399154055848916 0.009850503951402505 0.9228387740620078 0.6119022834094823 1.0783697174175204 3.1497574143611566 3.049788712748888 2.7243825242579294 4.812626786397005 2.665989861923515 3.3828366572472586 3.0397587827556647 3.182412052990231 3.0784676768993897 2.664341299197371 1.890439237952662 1.3950863152835877 1.2418774042291918 0.2975627242830428 0.3 0.3 0.3 0.3 0.3 0.3 0.3 0.3 0.3 0.3 0.3 0.3 0.3 0.3 0.3 0.3 0.3 0.3 0.3 0.3 0.3 0.3 0.3 0.3 0.3 0.3 0.3 0.3 0.3 0.3 0.3 0.3 0.3 0.3 0.3 0.3 0.01918635054012883 -0.02512859104662818 0.30016709403396546 0.5519202892869288 0.4639230125967523 0.1968026520509468 -0.12071753540876994 0.24277853514515785 0.14457150805256405 0.2405311992283199 0.7271841906833864 0.24168869882682958 0.7052669115565668 0.230662782267926 -0.20970044019430242 -0.35459890825570756 0.42645378512855603 0.2145258161774988 -0.8751828584051541 -0.994521092457127 -0.2556048205545271 0.1646351962858962 0.03339639570522517 -0.29094514720666276 -0.5441652112153432 -1.034503719471857 -0.9941666972298586 -0.5796189137586992 -0.220864425586537 -0.6758437854401307 -0.061979577602452936 -0.1846808210244956 -0.7386038168672587 -0.4913893383077188 -0.3192988132148622 0.2311318896600109 
2 -0.05344257589905977 0.4029100921881698 -0.06675774250869941 -0.0772083575798892 0.07487819302181585 -0.08093660866602956 0.2644891754439954 0.22376094710885253 0.15896443763791207 0.09122739379622494 0.21064084822727094 -0.2387745719068147 -0.24875298638925708 -0.3409727864744754 0.3720598137116403 -0.04644917831654094 -0.09381781957281692 -0.4890781834771544 -0.2962198809415455 -0.001544745166566639 -0.11440872215810644 -0.04616890089261408 0.01755915202747286 0.21272498859119054 -0.02006981060522872 -0.23530165716631501 -0.055992066614063335 -0.4667071223806205 -0.2593498181872407 -0.0705990021087999 -0.045916024006421405 -0.21164012295595613 0.13501721398940889 0.2723657434211981 0.1674625949375646 0.1886657747890367 0.136962531662271 0.5182759848982412 0.7655241649110822 1.1104858333613008 0.11858536095169965 0.2212961882000068 -0.42542166534616555 0.27037646936798615 0.19814057682609795 0.7570512482480279 0.4347532097193598 0.5857657646120105 1.9668942470000264 1.8654477261501654 1.7471514075741887 2.987097647836609 3.0545158867108984 3.899353615991113 3.2575093930258503 3.48652706507607 2.7215521295389378 3.3606599737488554 3.6396672589552614 2.877714770686695 2.168288559695292 1.6170782152026204 -0.18640932377673067 1.2627833292601784 -0.25807549700839977 -0.0749967741682392 0.7772285120640473 0.4948972754801487 0.8770789663851037 0.46232606668721765 0.6107246500829808 0.9313167152973494 0.3198572870905166 0.3 0.3 0.3 0.3 0.3 0.3 0.3 0.3 0.3 0.3 0.3 0.3 0.3 0.3 0.3 0.3 0.3 0.3 0.3 0.3 0.3 0.3 0.3 0.3 0.3 0.3 0.3 0.3 0.3 0.3 0.3 0.3 0.3 0.3 0.3 0.3 0.1027583248850393 0.40981503545164544 0.459515328576707 0.7247577988041023 0.4738804231154807 0.20769381748720867 0.22452681952496376 0.26067561715665316 -0.39158479604591134 -0.24694713623009415 0.0537797079655362 -0.5303293018186546 0.009383856880181755 -0.3562361737693003 -0.5087024899503663 -0.7611321926741276 -1.1095466990668912 -0.561932685511872 -0.6561931166619503 -0.4812098814040413 -0.4904421194038623 -0.798339748324086 -0.5589126577165043 0.033099046756588583 0.43435446119786214 0.07182416026668932 0.1289936821313737 0.10570988147278507 0.026482043517739844 0.19332690699265376 -0.1486031397876251 -0.05337596487068196 -0.14581227886875617 0.3122436433486418 -0.08421205905272107 0.24810641647549816  
3 -0.6255626898538953 0.22144892884285397 -0.7283983729344111 -0.05335229106303092 0.027534886142019065 0.11625951427345216 0.7854963391074267 0.14232492283694392 -0.31761731140865707 0.08788690331527622 0.17218129786034386 0.0020198723329169187 -0.39685316347061816 -0.3548093443835432 -0.48146583427602246 -0.4645464555852442 -0.40579480883053826 -0.7535335490256714 -0.859389229235201 0.19163278807049133 0.22922147665305406 0.32043520698474964 0.261639999126029 0.04077546233606553 0.003802188692949791 0.2872311870142083 0.068657260039486 -0.1885860684313024 0.09997442896176915 -0.012518720341749034 0.012700188040772387 0.5781742615326304 0.4002660076677214 0.33312753803685646 0.4032780360656955 0.3484989092153374 0.4189383299067889 0.4879961652122022 -0.26321318517762926 0.16807629237525032 1.7298305831740437 2.632901559257228 1.9669112467610734 3.245325641114772 3.522636251846881 2.4099669867696143 3.5383263527150715 2.860277816551809 3.5698040785039464 3.255637019221175 2.194129262632639 1.3933078175238665 2.0458820749599713 0.5274108451981012 0.3482210269736372 0.4339686278153221 0.5880701044291212 0.5641076358720177 -0.1954709374082747 0.31905481095698734 0.12283866276665524 0.6113457217121522 1.1745634383822299 0.4721949036499864 0.5958974824871216 0.2527427655896675 0.7619417258820592 -0.2037995268062523 0.007216727188534111 -0.1460242607790478 1.3725286370043677 0.8948522826718519 0.48457602009680184 0.3 0.3 0.3 0.3 0.3 0.3 0.3 0.3 0.3 0.3 0.3 0.3 0.3 0.3 0.3 0.3 0.3 0.3 0.3 0.3 0.3 0.3 0.3 0.3 0.3 0.3 0.3 0.3 0.3 0.3 0.3 0.3 0.3 0.3 0.3 0.3 -0.3235766489909257 0.01620565628582326 0.0633897595698575 -0.21259516010559548 -0.5271865028010526 -0.8135602080320108 -0.7712448893612742 -0.7943259057601387 -1.2767116552758362 -0.9596879045300528 -0.7218269065094212 -1.3426244290919367 -0.8453277154718739 -0.21923883359938184 -0.5310739885925743 -0.18025758031191338 -0.36978685823738333 -0.3291536227281335 -0.4864540290706034 0.20415595740766396 -0.035365748394051676 -0.013644309874428467 0.3815175253978715 0.06632739942255618 -0.2539810789324576 0.42310719954667647 0.6648838013922538 0.40864678098178125 0.23246383449402 0.14573274702701225 0.35434079847338823 0.07708190950533646 0.4253707933510144 0.12495590053903081 0.2792958396996082 -0.041116598301754424  

Second:
0 -0.685648383633559 -1.207932182972034 -0.6019455579821684 -0.617769904208101 -0.41495727620972556 -0.16003341149763178 0.6611114359343488 0.21301839856986562 0.016939661783145026 0.0509545408593243 0.3799854641321071 0.02368618867920367 0.7018336240532087 0.5467107771642165 0.46944144812717814 0.053920652483911626 -0.4053695322466365 -0.328357160276824 -0.4937381861113263 0.08866476467584765 -0.028138495305565645 -0.3296698330979132 0.06389452529222542 0.4890097082723122 0.2544703983571587 0.6700358636143475 -0.7527205195456819 0.1409951070963056 0.15741710249256524 -0.1266178909180079 -0.2559003134433678 -0.033178191025885796 0.03848005715376884 0.10776981688059964 0.5607323601848362 0.08106468373730852 -0.8747428367884055 3.9145688827528655 2.9479209332305274 3.3627525488690293 2.4738050644839924 2.4949092305723943 2.4945761952576966 0.7557059212363313 -0.011736496226463174 0.3197765955997587 1.194697965711167 -0.5532739361783231 -0.025924709441320255 0.19498734617719266 -0.2264390332511026 1.4311988769973811 0.3788354592046278 0.3519517611443303 1.160586920931772 1.169377051238674 0.6383243796995224 -0.24094781729335818 0.6619829655407444 0.8771519849886837 1.0647908008173912 -1.0180785399055987 1.2006717348791913 0.04088005576836123 0.2830925288626222 -0.7664953973659295 0.250198035168521 1.9120885502745302 2.3109760727532875 3.219962575357669 3.9310716277560576 4.880104921581932 3.2492648784385154 -0.0847729167955996 0.2997337312732899 0.2414297748628229 0.4474080734520988 0.10565969441339648 -0.050247772961679406 0.056162085446955896 0.05306647382309304 0.021338494252165274 -0.32157895943430304 0.7051693547970544 0.12087114491987393 0.3436664310724538 0.7885800305364505 0.552079291990905 0.8623658316525131 0.7199855092927113 0.32627212423949725 0.7160981897971812 0.6751900266202678 0.036955182184627865 0.09402279196087952 0.19736571352039442 0.20919154611764892 0.2723610859392116 0.06316285114971046 -0.07300776476522945 -0.2913984488581038 -0.05127100051402281 0.014953759177883863 -0.3719052295966203 -0.5188243069020119 -0.09892119544246149 -0.6766499230584176 -0.7587915407773621 -0.48626587105458663 -0.7456014153768908 -1.3670376032226295 -1.2668022605691307 -0.17527099974612553 -1.0370355921348144 -0.6565764973120986 -0.8543496870135558 -0.41156049164699887 -0.3336598539460408 -0.4689027113036405 -0.5826759120325994 -0.21944589053362507 -1.1115273602104454 -0.2804923960044514 0.079879064999088 -0.12444083608085355 -0.38404939624007334 0.2803679662440338 0.7725420077283203 0.4667817515267685 0.02087984129477128 -0.5268288609281015 -0.414531830754594 0.12660694377043744 0.7461586398632627 1.3422676791438732 0.7551111871116458 0.6861430187477157 -0.11697224008151605 -0.11969515274100162 -0.3002029351437626 -0.10847062019196071 -0.9227995628524263 -0.9108797103799274 -1.5183502953317458 -0.5199455591594626 
1 -3.956716674131296 0.5467948422887391 0.6883308869463253 0.09606026212829497 0.8422001397355189 0.30647862230327744 0.4837152576372843 0.5678176207375908 0.26709705908134496 0.27543465707640663 0.7195784599031122 0.6729262339508867 0.40861656436557053 0.5742354804013909 0.1877563195314612 -0.0038255786635568237 0.14772128085648673 -0.044781859764258386 -0.11568077535714638 0.4418153557627321 -0.3475463343850193 -0.33875380131988936 0.24304046994133022 0.5207500427192824 0.5860563425353262 0.9727724448118752 0.29579472187317074 0.30343807197191086 -0.2760110170986604 -0.046137859345871356 -0.2097839326292121 -0.07521794973004169 0.29669655467233697 -0.11694464592218373 0.27820442329832124 0.3328770130115248 -0.16988834109967849 -0.523653678686512 0.13080693312304612 0.0980701888031971 0.1944421097760077 0.9161837056189482 1.556060910447039 0.9685778052293584 -0.04362055853941671 0.239088863606644 1.0508005268939768 0.31744704097662585 0.9172262088723704 0.6387622576776931 0.5846175833987883 0.49813598949218924 0.2693613961365595 0.015561735027601747 -0.12454104949940986 0.2224717674994437 0.12772855163815994 -0.2942233072134328 0.5038855659136423 2.737679860271886 2.521296420322581 2.42782874857701 3.7784227607186627 2.37225941297429 3.8761520910003737 3.6416560722838636 2.988472396371548 2.503404694118151 1.6727056712733923 1.3271736457139052 1.1305764818316353 1.0957849310040668 -0.39472092762746225 -0.00886362409155235 0.1612034674775939 0.35782439311860886 0.3212942627989709 0.2593530277771257 0.11338262273635581 -0.03610623725674814 0.270498300908289 0.5156895925729942 0.4373874206927571 0.42637391847098993 0.3720131914329385 0.2828679908027527 -0.1212806954323024 0.24505254825240316 0.5833474583566044 0.48044353422820074 0.7145611095105939 -0.04434368520271914 -0.20575756417088825 -0.2656517059597103 0.2070030360728022 -0.03859896409984952 0.48307703297962323 0.12907876213706412 -0.28491234520904873 -0.5561692989844117 -0.6802775068513142 -0.49510688139492715 0.35424579247141774 0.20515837174099066 0.3023280432306673 0.4912208361716339 0.38067809290614285 0.29143904590952774 0.2732526098820693 -1.8040082523897534 -1.9793494488924308 0.9389075440162616 0.8966580634312152 0.6949712313031208 1.1790484489386823 0.0525232502321389 -0.10685941399630693 0.35289778374889647 0.3760913846539829 0.575008966347868 -0.1498356081807272 -0.5701966338521695 -0.5432932375959801 -0.20828892623230943 0.17627214829106103 0.5213243562972543 0.266603959435951 -1.319919320347908 -1.6059651627964686 -0.2675901769833185 -0.14936794498191103 -0.6455941643451154 -0.7473824049163348 -0.6009071440567341 -0.9377212742222881 -1.3500942315243518 -0.5740245204608742 -0.388024199917579 -0.7382732723560218 -0.30240594013719274 -0.3771153981640758 -0.5505487763548299 -2.5550329363298436 -2.2959766940281754 -1.2763953411431184 
2 -1.7059193973068747 2.2630472253770444 1.4041906246954514 0.17099793618185558 -0.12934247432313686 -0.6819281808255467 0.09875582441427701 0.5378611709402616 0.8885100635480521 0.7693853686238525 0.23961764888339626 0.08930218448447225 0.11312267078795418 -0.1703128392544403 0.8061181206641065 0.3943811590042443 0.08063835565008509 -0.8851697520636315 -0.9237684900767305 -0.4482764359846485 -0.8226472734233612 -0.16048652018553292 0.1751451406961665 0.8005534260733509 0.4587784513470805 -0.1752430451542552 -0.7555281975202668 -0.6874642411864922 -0.4015106046583416 -0.3310380190472337 0.04351458534911215 0.4969299008009197 1.0443039904908307 1.1102754748716102 1.498999746099649 1.4422028827573208 1.5223024182945297 1.1304579545830593 0.6912688714849865 1.3178482580800668 0.8760127313257173 1.6109991943243283 0.8119056781510907 1.2122993901701964 1.037735347905062 1.0596601593109753 0.6137500760418187 0.3654969223153564 1.7210695161015364 1.2941510260926534 2.0170614455649973 2.090709336117105 2.7108996292845107 3.8673129866453184 2.2141893300018496 3.9440364175183813 3.8610795088336034 3.7339300589902797 3.36692060464739 2.7878089013624736 1.8893326085160123 0.7148124856548985 0.011743032121383584 1.3834547901383705 0.1599341096018806 0.4732153837167915 -0.019831342756287156 1.0858672542171328 1.264237178982022 0.8611985489785834 -0.05137229136398443 0.21719221060446625 1.29005888990359 0.47458668181321106 0.4291222765432009 0.15133807014446457 0.22616638990748528 0.10827209239143713 0.31266908398831894 0.04701289596281945 0.3770935948219114 0.23927050208807735 0.22855886698801517 0.6147906207734085 0.40786870042316836 -0.14168405601828155 0.12452666454114783 -0.5750739164663072 -1.0893424799601377 -1.0581153727002113 -1.300832052291317 0.08115195358448817 -0.02532019750099311 0.5806756669921164 0.6891861893857556 0.004544353891473812 0.06956769072897569 -0.1296072588584359 0.015567543996056886 0.32260921812494336 0.9573655324285496 0.31913573858203237 0.23240213004570473 0.5720943861828847 0.09432687954443994 0.06651330520248022 -0.028880702430688146 0.15205932469462574 0.3253116991369637 -0.2953845229957061 0.380900073350502 0.4453835783867799 0.6231186130410946 0.8671742088499721 0.002526678204147044 -0.25640709585067584 0.5766474918908581 -0.031234427914012805 0.1626261007444973 -1.4162250415367652 -1.8288567657960062 -1.4271414216075564 -1.4385390546251702 -1.655723161680235 0.13039433035247805 -0.5219674768116247 -0.699063569009224 -0.9946909011232639 -1.6102932334601143 -1.1469559146772257 -1.3721103849763951 -1.118974514481162 -0.991487055031901 -0.9487109374737943 -2.4163585920709556 -0.7756422523153406 -1.3116515512285485 -0.20953241076150567 0.05940196766836925 0.3316651728490391 0.3556448371869656 -0.0410480004661372 0.33242377933744255 -0.3954948824055326 -0.052334426754742036 
3 -0.7541875339721336 1.2848098804389008 0.1184838105183611 0.8555110346600536 -0.12125788048997796 -0.07154909045662604 0.39593497364428937 -0.26052966999768223 -0.9117180384748067 0.5109796977592542 0.821273067447218 0.28709420280724474 -1.0033380637831626 -0.6816248692780877 -0.7171034424970344 -1.1663435921273433 -0.3619876044152129 -1.0012845341636993 -1.2339285502391606 0.3282302301744636 -0.5667779339748348 0.34558090546130443 0.7482966697498008 0.6103239628500404 -0.47784559434146573 0.3609355029181109 0.14875197684509062 -0.29073505460420884 -0.004167212382003585 -0.35917811318309656 0.09338721349838773 0.43897568850312724 -0.2269833951475294 0.10798325595020239 0.5618361409634098 0.906390363801206 1.151167734247375 0.20897980641030817 0.43559903356207497 1.4756219350407647 1.1822663953881383 2.237689185640343 2.312528436068948 3.5549243502929566 3.9699571365007755 3.0266594776262514 4.437766222854262 3.8351020414883554 3.7353903120351317 3.583695822049856 1.9060934279038273 1.8562415215560795 1.400947396928473 -1.1061183053269665 -1.1592451115507145 0.006990482424091931 -0.9589014829015311 0.20284129671466716 0.5654217012055254 -0.24173973227974768 -0.030844636861803006 0.40334584978440036 1.484900167834538 -0.3282571806748036 1.0115173394284045 0.6423310801915395 1.0694512310529876 0.07992862070571441 -0.26429166454404573 0.7962683317208931 0.8820900623796538 0.5302778570851241 0.8567366526433453 0.28507038576801896 0.23393482303534596 0.4001349349636978 0.39949677115175414 0.10324473483928953 0.41632490549598916 0.4899995391948782 0.0011405399861698397 0.08124704633180801 -0.059595970391253486 -0.019388251014377716 0.22420237780775445 -0.313462184417577 -0.1883849042910274 0.02343124058430744 -0.2654663535476164 0.25358131489442565 -0.10215068774962038 0.22074330553631388 0.06010004623813505 0.18135508404417378 0.10405275918732637 0.3912170148817702 0.17936169195991017 0.36754476861005303 0.45402649066042433 0.4028971523722926 0.3570429121076556 0.5050118640986713 0.5102972296980169 0.360470485159215 0.25514409059909465 0.45500538532877177 0.14858925319994826 0.43878173545200694 0.23003919059384642 -0.6948955037230018 -1.1083544957612936 -0.6212780027869691 0.27620260444616734 -0.20633156732347133 0.0957371802061034 -0.20879912127879507 -0.5525608427470073 -2.209182304925864 -1.9963487622679923 -2.1205156144873842 -1.7656196178839272 -1.1939047801681761 -0.4813449043451463 -0.5973235961203927 -1.470677697154376 -1.1939285806449824 -0.9329259763644356 -1.3392668926659514 0.09208609073602572 -0.4806315071844234 -0.15169550205703908 0.28337455111475446 0.570028026374827 -0.44652763822248714 0.09506551391256193 0.6042215644549715 0.234930211138772 0.1890676051527772 0.2951218824109541 0.27374016114560995 0.23754659772972322 0.6493120130829917 0.8841554787948753 0.6043359036204295 -0.39981156512357713 
