0 -1.495124211848025 -1.1795360701774769 -1.146206901146862 -0.7604512634914595 -0.2311166561963729 0.36307126643025106 0.6390825347566045 0.24372674534284808 -0.7325711453383297 -0.32141689120963013 0.4069293223344236 0.012755867312668421 0.731251053093666 0.4602502595387988 0.19058726811022578 -0.2586428304851713 -0.44534491303955864 0.5472126505152077 0.5970712880384885 0.614663936903571 0.21381730497877427 -0.04512309973023941 -0.25478606642999707 -0.21966479632354838 0.41105744837366326 0.7174334262407327 -0.9263283679027962 -0.6650645924948514 1.0548489619968378 -0.2154944977519838 -0.9096864849371664 -0.029943065141210878 0.9920565794594907 0.05799824891149097 0.9203094926321166 -0.046301202014138926 -0.04650336313605824 6.322979594975507 1.3564857685041907 1.6355313370975924 1.756661005038582 0.6811039320314387 1.9697599502799479 1.3570074665291285 0.9687791088274793 -0.48299956273274436 -0.10239790177462837 -1.2162749984756769 1.2525272716903195 1.3841331990191637 -1.183784321254708 0.33936804431186474 0.24341437010987643 0.03750840497090936 0.5741832346136873 1.7472530844365026 2.1626229339618885 -0.7648855140474727 0.0820075392364874 1.0005853101290423 0.769091161915938 0.018608311980432144 0.5190428968288747 -0.15527680486198975 0.038914690150220275 1.619272424173853 0.9057149128003333 0.8711016742891664 0.22783025742109822 0.019550343471554262 2.6919894743460935 4.079930909175215 5.308152451622716 0.21502054289470693 0.19703047789014405 0.11526867111046024 -0.42105755679360124 -0.3868781482680574 -0.8102236832675144 -0.3784189106494361 0.41417368660084697 0.01704863121038747 -0.5856321030349992 0.2737561533201574 0.05123297108800928 -0.30427757528322 -0.13391171555497747 -0.3274030659652431 1.0193627060846173 -0.19447569893090877 -0.06887234069130799 0.46603786748419473 0.5702357243179768 0.6522638277147514 1.7017704653936103 0.012631992890438176 -0.029723895299524537 0.46706491703373454 0.26092121462168544 -0.3240858785614776 -1.150756713433425 -0.24630859058596094 -0.2821456098742562 -0.4471587801314334 -0.5420347355998831 -0.3470292534832656 -1.5806150035903956 -0.9279313381300325 -0.0840008650072503 -1.3086526244534316 -0.6608313891290621 -2.9624212283015754 -0.001248732600569004 -0.38295435210831186 0.08967719701587346 -0.8312682115819273 -0.6511964465670028 -0.5124274439841316 0.16407921533297187 0.33790728107386236 -0.9788229868078856 -0.912166140233343 -0.6404411511397751 0.34873123870776634 0.48497940448623666 0.5779587094819544 -0.5378012327929128 1.693836192372945 0.19909397419042557 0.8176590687897507 -0.01703634762170789 0.606237103994947 -0.031377312430172166 -2.0153249881242306 0.18101645822868032 -1.4523892470922632 0.18608217945441355 -0.8482647914338874 -1.306448822978511 -0.963810522571387 -2.8476409265425913 -1.554444180310115 -0.9726279356152827 -1.3784574197732478 -0.9639596997624807 
1 -1.7731418175543194 0.5252741970958587 0.252373545300218 -0.5585527385153836 -0.18409582644971056 -0.7638148136529547 -1.044338295995809 0.32832464768678277 0.2578642215273072 -0.11017657419334796 0.7287001620337328 -0.26001088780548537 -0.07830368519398463 0.039204046204582635 0.007006384880781456 0.09488520601287223 0.42536926453462787 0.8603148008779126 -0.024939570511136003 0.7402058526266971 -0.4247982881124808 -0.22978980818347244 0.4446737209757492 0.4426224622867956 0.35857963367096957 0.12372613704912946 -1.570520447285389 -0.5803629948865243 0.33985505070364985 0.1261784141001428 -1.1112510185747493 0.3405068782108115 0.20427119473284844 0.34032747494093196 0.16643428691229323 -0.602055665319491 -1.2818357372774696 3.2482090416782823 3.693924051171014 2.2055464297132485 2.4023881640769784 2.309808003401871 0.7998182870619897 0.1422806545752161 -0.7194644516330146 -0.06763503463376178 0.4526829564650254 0.44186874342966637 1.6525745415729531 0.271727887664115 -0.21477348157936169 0.7305404940986728 0.40116235014557783 0.3319278734243436 1.2846913792139698 0.618102055176039 0.34923273034599334 1.0747007379197862 0.1512844734523099 0.5942817747093936 0.04254255711693019 1.4074569051662593 1.1300716988892767 0.9548345682143707 -0.332567951269787 0.015067698106073207 1.580453409016698 0.5688885734767146 3.187577765184416 2.9120558554948377 2.495616662555577 3.4122375480067024 4.096267518815216 -1.096909776445203 -0.6084424573552191 0.27260258325142295 0.20654480038545955 0.9195413740082267 -0.009981855431661087 -0.9456612316091209 -1.9843856955156258 -0.3845727597468242 0.5692910596977627 1.0570385592531477 1.0025005392997646 -0.18167995943306314 -0.15861232230364003 -0.2405779411423299 -0.29599940319849527 -0.06479811567130603 1.1530635376648395 0.2525089587482166 0.21058818121888667 0.3239172063260051 0.47812109569863964 -0.6973032479719006 -0.31532121077915715 -0.5560306876190843 -0.19372308879051084 0.02216131046204825 -0.5689811283930702 -1.3531914017160789 -0.7226833687319553 -0.9038185376579099 -1.1638885149328633 -0.6601762744131617 -1.2453224062566437 -0.8560875215742494 -0.5968645477941177 -4.232854075994633 -4.333212840549225 -3.401055351309116 -1.501089245641429 -1.448487243797698 0.39365658425691646 -1.7835846866677671 -1.2263297448255206 -1.1646664771119384 -0.5342076167174693 -0.5296012129670141 -0.24907493205590264 -2.1007511626678017 -1.2682981211828357 -0.9288842120882794 -0.08277257302156474 0.36972764088456916 -0.2952924326958852 -0.6193758719231928 -0.22532108082522237 -0.3018608512519188 1.2585223916955077 0.5705960739114558 -0.47405557311334773 0.511287722712711 1.3652638726416115 -0.01535137437282947 -0.5179009665199721 0.5686303185131653 -2.28258788695967 -2.806786185652186 -1.7719424687124254 -2.970766419879172 -3.3211880783593886 0.034451951910818485 -0.6460347637278879 
2 -6.553397437753144 0.6904930145706679 0.11704692534486072 -0.6392308463873425 -1.2664378431612726 -0.966584152225135 -0.1513989527860754 0.5373555010816452 0.8101380375120011 0.8846668086025498 0.827269783144868 -0.12433629524631688 -0.7802479824398981 -1.5143515467005833 -1.0322907325509134 -0.9750137762739647 -1.0399680792490877 -1.7181175716481736 -2.5143465661881312 -1.9388886058383503 -3.0282611295972277 -2.135171767873092 -1.7809021080644292 -0.6630879650199901 -0.4966454632225147 -0.6034287962937245 -1.4790959223467723 -1.2135701205015992 0.3843307597532325 -0.25744564294012867 -0.459185504268803 -0.561742290969553 0.29640223076517935 0.004178578347234065 0.5515117941569978 -0.017018894218418304 0.131853676450612 3.3773562209724712 2.1517144210251167 2.919694686252277 1.9757703029306852 0.7920689464206669 -1.00269480698223 -0.36326552197114875 -0.5935860765824574 0.5987276148050567 0.12819512539250866 0.25556273081311665 -1.2183378567680723 -0.8643246392658825 -0.34299606062162924 0.5931673859841159 1.3039820220070708 1.4819778154617365 0.44411659794315167 1.394345925855761 1.1066315064814378 0.5350372678699699 0.30051947163998705 -0.21622853992006255 0.09265361300418358 0.21054973586680026 -0.23841692566358869 1.0486566289845571 -0.42319780812578456 0.2777167448722145 1.7217129159173206 2.71937561173492 1.9318208829490506 2.632430160876064 2.1590026992712064 3.3588900522959264 2.2533469964389337 0.03033163588138494 0.01845949200160591 -0.14383859335150265 0.18701095108416152 0.3906542899762639 -0.2513633906656189 -0.6001704683937498 -0.4197269876011694 -0.6172750085380877 0.17164887822656322 0.7278689467957931 -0.02685875309029709 -0.439784556922973 -0.3565337722050352 -0.8367134182729651 -0.6535746790800161 -0.3732693605089116 -1.0438806975714021 0.18824964445055434 0.6058805745907514 0.44018642799257657 0.3240456307411227 0.48210134027302226 0.19726622942453598 -0.02596035540509071 -0.5385637588624164 0.1702230947135987 1.1467899654581282 0.025397315528614357 -0.2989013326311877 -0.20793159331149097 -0.7340378372746836 -0.17655701533853996 -0.8858237054766013 -0.3853406626886683 0.40935616422178395 -1.5940081744943122 -1.3607991187274986 -3.2787317080977942 -1.524297827763784 -1.5188014030510901 -2.6214433098357373 -0.13494835777187397 -0.34919567016867364 -1.5064729100727214 -0.8810796942975069 -1.4065863070495173 -1.3456125236903735 0.3805995853972756 -0.44819792435754396 -0.588083147657339 0.2802604816466777 0.6804675458382193 0.030027615500194914 -1.1518282209879283 -0.31607141043106457 0.23268132626729218 -0.4618816874442143 -0.42225404385661536 -0.16349237866276686 -0.11793716148057454 0.08687625151867438 -0.6557368971254228 -2.123118941564114 -2.9571100454292507 -2.791170606179359 -2.0330996012712035 -2.434190488536802 -0.9898603042904239 -1.844727480298638 -2.7301334931180206 -0.9401093501293392 
3 -1.4784424672945207 0.9636348940998769 0.2302136508711372 1.648481575643426 0.3653802063818391 0.7522026105153036 1.112150911710298 0.21547936650013758 -0.2583121562296788 0.3830555082621324 0.2203026672847454 0.7681772601788495 -0.45580245874863645 -0.5993597349114692 -0.9128336773884849 0.03676678154875164 1.0460942271230003 1.2935139584234867 -0.45060262133375634 0.9812847818150451 -0.7510385749570759 -0.023341545847036835 0.4488154348567084 0.14515164086036536 -1.9128327831784115 -1.1201589233387397 -1.0045614674483094 -2.035364821292244 -0.4719634494818743 -0.8911839023578909 -0.26096271881044164 -0.6057326346816138 -0.8048281138970454 0.34407651421054086 -0.08612091345629258 -0.3450885514834575 0.24751574797957282 1.0046370463700707 -0.6454070668012879 0.6984302385642377 1.6555971204853266 1.3598096030149929 0.7554457972492814 0.961939783987414 1.102532044684583 -0.5892054613252469 1.5341833866692935 -0.7163465967628941 -0.4237844594897462 -0.7044435758695605 0.20137589538740563 -0.0529740561371097 0.6795256284417545 0.5768653461266906 0.6485390001505041 0.8431746331952606 0.7422498159921064 1.5929920053844153 1.1574387376391138 0.011801818187078511 -0.11065153031276932 0.8322589968998569 0.8368921987895759 0.4649884881274403 0.4187377880367918 1.3480354336136404 0.5819534132020344 1.4448435871133527 2.2854436896746724 5.857663751121633 6.220902924998848 4.897444482046731 1.065990049342056 -0.06754237791521926 0.419129516185633 0.37034323222542487 -0.35834791711001607 -0.18318639012804194 0.8737407877091302 0.0968718996653871 0.05582257258112338 0.29824654709833565 0.19893851549547828 0.15745314147140574 -0.7546674464693724 -0.010018693294796393 0.16487922413311068 0.105069498231855 0.04919991800363449 0.6379477450733826 -1.4976448588587608 -1.3549874379058395 -1.2126614544656498 -1.0769785773545637 0.7655545512656984 0.7088917696811586 0.18116331092908486 0.16526872580115978 -0.9151080518043333 -0.3560552327474368 0.010721205199029226 0.012808596978843371 -0.6997217387496099 0.8599937556955621 0.70504082283804 -0.04376541201021978 -0.11312518689505441 0.4328059996313398 -0.27726571671579175 -3.0102241670727983 -3.2937987642872906 -1.7959116975339333 -0.6656930084891097 -2.3117346125447518 -0.553334900836642 -0.66297243548968 -1.0075927857513438 -1.5965511484815313 -0.718492912905159 -1.9477750234185771 -2.0747355639790137 -0.5620650982793715 1.4779073237630582 1.7019304183646746 -1.1300293642141412 -2.105897107431833 -1.9254797457080381 -0.5774319815559323 0.17536107089358835 -0.03815231799289005 -1.1082477197372351 0.26712526439741147 0.2527770282419197 -0.41470110321974946 1.6455073235163744 0.3229840259586287 -1.6520162658730937 -1.134061987922587 -1.8359543351138772 -2.1358173697494958 -4.3930300064472885 -2.8334970290485813 1.396965163403071 -0.17889472160193284 -1.3269845913360614 
4 -1.9937119144635949 0.4288420635426451 0.013428233583796675 0.09773271040763437 -0.08543796193479468 -0.06813805519579856 0.18705919106102636 0.3898490752048039 0.48787114490835976 0.09516789985623152 0.10974566667106696 -0.8705380624058805 -0.4851714489769981 -0.3656123287262169 -0.29308745898911126 0.24280702202523807 0.5070772062330587 0.07809698630347597 -0.2327636624245145 0.7038803486603191 -0.06683174972142061 0.33527149664480327 -0.06495364819172002 0.4304580193391646 0.3818879940834983 0.5236874106655646 5.015552976929613E-4 -1.0318944992024683 -0.2419635052173621 -0.24426196270653738 0.89272340630825 0.266408701226656 -0.16813081247557146 0.13227055523716613 0.5160274687482691 0.44137307028552725 0.05942066485856777 2.83044815903242 2.131779300480515 1.2903036373335794 0.39332722254935043 -0.14752792362340525 -0.007940502617370638 -0.0645768611665638 -0.4789118049392709 -0.5269550700470397 -0.07560653688401414 0.16942574303485047 0.7752280443516251 0.11012500666490856 0.3028693821220964 1.1289941763791833 0.4653523077345091 0.6546997114133821 -0.09037851517132406 0.5556956989034343 0.31858061320684167 0.49623247938988024 -0.24791153273416508 1.1414104416131772 1.4607131363532253 0.21516880094258534 -1.5468694623201158 0.2322892112868942 1.3415709349347142 1.479622634267931 2.5199808869724785 3.7133328397952003 4.4518092813960815 4.558088139646056 3.7678254997882488 3.2712087336274913 1.9622859452228392 -0.5985328133996862 -0.3424231999119799 -0.7099612569148455 -1.1870497819183379 0.05197845433555544 -0.7481916776353811 -1.240172034718638 -0.681223332643492 -0.2227725978510529 -0.6848720847255368 -1.8217049191070456 -1.3903743572092024 -1.6130961073894743 -1.0762381934854024 0.3811341871183192 -0.03903865211735189 -0.12857526394576285 0.332016108131054 0.35057704848295296 0.01265687437298732 0.8556133259198694 0.1978878140127383 0.5903893205164967 0.09730046777775395 0.07986002822420459 -0.5393934089404874 -0.7014218415131431 -0.6388419324079343 -0.8890491637268343 0.1589109935621839 -0.21905918771434277 0.09763122971337479 -0.8459555174759216 -0.12554247676336083 -0.07191551962109251 -0.8704570587085453 -0.18461901114014592 0.9891796999784997 -1.9284447388022763 -1.5536757135518064 -0.35760699025352155 -0.6012378289342292 -1.5304319105289246 -0.8506330531411795 -2.285461165200606 0.6229621110836979 0.4152528210643093 -2.227849351992051 -0.5940463871830821 0.03485600474310759 0.4385891823349245 -0.90723049308771 -0.45610577007828534 -0.20990001863387114 -2.425788137665486 -1.3437944503436763 -0.7238208554025591 -0.3735183338086809 -1.1167816842400138 -0.1130940420398982 -0.8498548882596814 -0.6574584741873701 -0.16205755852778075 -0.45156129763350245 -2.0563422408321257 -2.1353743917450636 -2.596830643488452 -2.5181769417141178 -2.2145046945286544 -1.139828091589823 -2.7985561598572244 -0.5742458902924438 
5 -2.136045922648848 0.13833044745372997 -0.4847137853868211 -0.11772546704172823 0.582111550060531 0.39313092556324747 0.3299196676787518 -0.2961501990254908 -0.18405554588216555 -0.051218322165359535 -0.08918679313535101 -0.4098685014019959 0.07607957357319317 0.28550555380856857 -0.11437995012390623 -0.5828089750320778 -1.1000305540096595 -0.5487291189003664 0.5020467786121804 1.1270995677582227 0.23240001794708384 0.26180178457285785 -0.09181997575278539 0.6068719080698277 -0.0034397034787056868 0.2261768762552854 0.15417009397490739 -1.2645895879029156 -0.03295298039207836 -0.08882423069734449 0.14704334303528827 0.6757519636337788 0.11383768470201137 -0.46084551494038795 0.03504033286306328 -0.3979048909525543 -0.6155636371228231 0.2770438705592091 0.009026058881942276 0.7936828945567741 0.21274459716788485 0.6969829825026046 0.33866963391587457 0.07283425240537045 -1.014572807349587 0.4328098364042994 1.2633424807050677 0.42465592877608144 -1.0863895479812982 -1.1364407885824779 -0.5233503992939001 0.41512873055823446 0.7463845714852964 0.8310462822163598 0.8611665349604702 1.542676799688967 0.32180708297433525 -0.3119612643378934 0.23981935458280915 0.07396334773061387 0.512744517708812 -0.06719204975541195 -0.4223011311061075 2.2636324406678607 0.8638310458906189 2.3544686388974 2.651047299236917 4.509492920488879 4.6096272394608855 4.784146918176221 2.547071822256537 3.6119258024662453 1.5678478438211574 0.4501745128971209 -0.15312458155481878 0.14301693777753166 -0.5289069522712948 0.4887226279206221 -0.3264076788495773 0.10584401204841475 0.5580648438196009 -0.5390790540529503 -5.109405649104878E-4 0.5521378932986063 0.32460033680772654 0.33089872519888947 -0.06713827600751712 0.28367672663469623 0.3687023575475138 0.14541300614145342 -0.30701872075270803 0.07162506803198358 0.053725174101814606 -0.6241697202142904 -0.4653631441629879 0.13122159710262632 0.7060900479905069 0.10048233458757644 -0.26152147024611805 -0.9011654643145824 -0.946423976932578 0.13059734887841912 -0.10945634538870425 -0.1994793408674867 -0.3061979566904352 0.09964121336256047 -0.026758078270423556 -0.25120742294113824 0.5017250740299439 -0.3560109517014328 -0.07809066233489612 0.3022269056899171 -0.5336321249909615 -0.17087023722295738 -0.6875958106428299 -0.9987254567784475 -0.8366826086444862 -0.5067540339818997 -0.26937812701899094 -0.1935772093903496 -0.13788521814968835 -0.2529010177245819 0.2519351530255186 0.4408846919621088 0.6148629971546881 1.2118658541586114 -0.9266495410346919 -1.169361061383496 -1.212885244320795 -0.7767839647526712 -2.433234336880563 -0.909022705037397 -0.5722603209830376 -0.5891487209346733 -2.8391284051384313 -1.9890150746261026 -2.223562736325542 -0.31853484827438283 -1.3915893727073605 -0.5602812074916854 -1.3591172863281522 -0.8547555991025424 -1.4029882680803856 -1.1693057562175866 -1.5151642854623213 
6 -2.296141636922809 0.05769396734127194 -0.327489355909509 -0.8224025134934372 -1.0289466902146671 -0.6620564406188254 0.4555442028771453 -0.09416073712704508 0.5418825962459871 0.367883587435217 1.1932719810477257 1.1589475222678036 1.1262561538612286 0.3637037439043843 0.6611496529161859 0.5088328203787611 0.9922531410906098 -0.10001394247669926 0.032012113590378324 0.2377961252289011 -0.5808538476613205 -0.602577102047728 -0.7936851006219197 -0.7065384670450583 -0.18115590237803955 0.10682830134958857 0.40198469780767043 -0.5525901086011178 0.690343076351944 0.7884002086621102 -0.28394866804871505 -1.2501718205881336 0.9035608027694195 -0.7015974983680076 -1.2626079536976553 -1.2655942704111554 -0.8751600230443497 0.5912284239011335 0.6812913022392866 0.07087102975341082 1.4955816258597554 0.3239436155726307 0.7377919465716405 1.3239931747810436 -0.4991664275290212 -0.21949787979149502 0.6052348807964755 0.1877657276498431 0.14218491030424132 1.1325644790460974 1.6596132584070642 0.9294958241410011 0.8478594979714189 0.20029569030624939 0.7210179172988969 -1.0516070994077 0.5289310577994593 -0.7469763569177703 -0.8377391485187005 -1.060262004101309 0.49368734169196393 2.3774202847340122 0.8210032574153088 1.0699927221429333 -0.7764301557494607 0.9648503512038155 0.8811120373257901 5.281218018998451 5.4433617918970185 3.8547787913952325 2.670694269285971 -0.4307780013536102 0.21109086658744058 -1.6788956678468854 -1.4877296924738437 -1.9834942624777094 -0.11456599977457671 -0.14780142369920643 -0.6854049449021372 -0.6485485164648228 -0.756472954702696 0.12337943283125379 0.31237999386520887 0.3249012570205436 -0.0732287828035453 -0.17534968949262172 0.8019082558953095 0.6977935687188592 0.8359143116744503 0.18294663881089118 -0.650314774253512 0.28844160896253573 0.9492643479089142 0.8388725152331011 -0.8561637347217858 0.21715911053207831 0.20886638972336474 -0.2310834964811607 -0.6863390649081225 -0.5038073403731839 -0.38712931933679084 -0.2211163225563014 -0.15546668937457236 -0.3313075715624221 -0.3031756046412886 -0.832187598571128 -0.5519849389193856 -0.7037753869355144 -0.7697782536104392 -2.851982616098806 -2.9373632744852616 -3.0182584954887357 -0.8224457579786465 0.38556878066576356 0.059019236840904564 -0.10936521930137358 0.09381341446217636 0.060156381466129144 0.17715241633824153 -1.0795265549561064 -1.1729299194102494 0.7780357375692348 -0.8710856417904073 -0.21310649259917241 -1.0370510389560257 -1.7353869090823355 -2.392856495728292 -1.3243946998356706 -1.5330482652314268 -1.002552245255376 -0.6553331849389977 0.3787707516479201 -1.022903736547158 -1.7329422019839191 -0.21469547886348117 -0.25437912348596436 -0.042265733626491706 -1.3837039720264888 -0.6881760744542645 -0.9662352443659948 -2.1637280426369196 -0.9785608203860685 -0.4883404711095517 -3.9850465332870355 -3.888677314237552 
7 -2.3121745307884916 0.2581579507949431 0.07764836675100022 -0.37219526690598326 0.2884118794255805 0.5160782220437156 0.7087513505031614 0.6048852232820701 0.5728362097929827 0.20959450371642957 0.7008266929279897 0.21011428350875067 0.49206114701865533 0.3641252964150473 -0.5962109368903962 -0.21996485957241352 -0.054282316648980686 0.7735790274085452 0.6608401410568914 0.7519956367780878 -0.4733799399880792 -0.4191014408934395 -0.6942881252922094 -1.140057497472251 -0.09294183635821913 0.16821594831285444 0.05453308569126517 -0.9036383077014034 0.08240257322605629 0.44483716425961506 0.5340668147754527 0.3977432755856527 0.33677766953236105 -0.009773165358062996 -0.9380177398784888 -1.1365927681874815 -0.6027918108587792 0.8045490221940339 0.23446161009268607 0.9204610416189788 0.03555083439393395 -0.5868847220614928 -0.4404085213235437 -0.15525008223007042 -0.5789596793243577 0.6056401314983071 0.4559326651590905 -0.34568482650204563 0.6976470691537384 1.9169725355248748 -0.7641019045390062 -0.5173914141514311 1.2271180805075919 0.6727583330675092 1.1361580496360342 -0.1349412850163817 0.6426562054640904 1.350227397205984 -0.3202838708370639 0.5790734648008522 0.44464421132883625 0.2641772876666826 1.3466763291714237 1.1289760115071155 1.6667088619915116 1.3534369068749657 -0.6398392787245948 -0.21704089023904227 0.6500949256798736 0.9827472342310265 1.4313687981310919 0.620527449015368 1.0038050650085635 0.6726515679779449 -0.3452900336926108 -0.09520175258094396 0.09324491229505774 -0.20447445805971942 0.9594019898138885 0.509832281283879 -0.19493811688257529 -0.37952895447249224 1.2145981888157253 0.2586312742273766 0.19778336365786353 0.5340032846101221 0.126223660285183 0.28673275290237443 0.40960900956269 0.5349929460071079 0.17963687659163083 -0.35272678175978434 0.5982866330108765 0.031156373761364844 -0.25859305610149785 0.11512004673038227 -0.9287010492296877 -0.3953800052179097 0.3259319953838033 0.21537244073012982 -0.2055125691672488 -0.8147754634034265 0.04862521257038672 0.22531048443038634 0.01978427761108637 -1.3270223765590647 -0.8380482173135729 0.39172398795951907 0.2793560855940049 -2.57168420972565 -1.7209635657248123 -1.8126113563734936 -1.8682665892067414 -1.3629332003371184 -1.7169555637088862 -0.4052261236048311 -0.4270900587412718 1.014751889993725 -2.2232073398981713 -2.179367327937195 -1.2767913891776137 -1.671657727965281 1.572160943177821 -0.4311031864231385 -0.08075924449359458 -1.5965720989490426 -1.87165158265541 -0.6970726052135104 0.3975983425443001 0.23240385075951048 0.6845534190338932 0.38252005320726884 -0.1299530472351595 -0.1404342680116403 -2.1564819194295546 -1.7158521138312008 -1.8511447974781354 -1.6984577589089216 -1.9195830011645456 -1.1151222247078427 -2.047139002114683 -0.792257194460682 -1.0521720354793977 -1.835376695969172 -2.57202655431858 
8 0.7839206611427035 0.6465581302082574 0.1383113881053572 0.27527732930161847 0.942420515159211 1.5983164740789637 0.9600759132473627 0.8645840984073246 1.0762648269836395 0.9913985610599125 1.399432792601215 0.2444184540524993 -0.7631365663642053 -1.391670997878046 -1.4065286502219587 -1.4921947156200293 -1.4137219785748802 -1.2052134571794477 -1.3384960071098502 -0.8544080110811348 -2.067651006643723 -2.4277293305908962 -1.9731043225638463 -1.4744791657895522 -1.398708138906677 -0.34352520828926053 -1.007307388863037 -1.5584427404006833 -1.0184556464429932 -1.3774141223609981 -0.7125795154788996 0.18844317083179968 0.1044637815647429 0.2653132243805995 -0.7075733125460558 -1.081478828831134 -0.306112042440789 1.5740387619822092 0.6803024922559325 0.5615314937092564 0.6397960712214594 -0.13068878117511148 -0.09957550067003636 0.4396343003385555 0.019194419188707103 0.7564441975451411 -0.6542782050806778 0.07947251425657749 0.1830118395157675 -0.18462911754206984 0.522998711429192 -0.7913873160941398 0.061031806048149215 0.4618802016465342 -0.9236361821353062 -0.8345072493298075 0.08151956159438845 0.49044999157493985 0.807494395721341 1.87305260273171 2.4749899323806144 1.4867927610697145 1.8840620945180955 1.408606933888395 5.126784716093784 5.412146513021059 4.533982647653884 5.205372383998823 2.7515091870595008 0.9437089791043953 1.2121775686675307 1.0446501623563778 0.17772969149042267 0.39866685904161747 0.13029028555232913 -0.5773348172118541 0.1694437500186304 0.4441594309207351 0.015044047594361981 -0.10039053587395584 -0.07029070121986083 0.32503309175363326 -1.1403279979757022 -1.1675278730438208 -0.8263978954115664 -2.0227702549969635 -1.8501472040416218 0.019514934075655393 -0.44934643177252426 -0.20861670626240592 -0.27233344960109634 0.19127837053238086 -0.5564124175618702 -0.2905864559383282 0.10064870485199646 -0.5193190678355758 -1.0142492279379272 -1.3313401897954922 -0.9722682699370501 -0.41144680918975407 -0.6017135238899216 -0.07621365563867619 -0.387637869853792 -0.438020103608678 -0.4746285925132263 -1.1499118730639415 -1.210519169663601 -1.458695974675992 -0.40844658052713345 -0.03836019199885304 -0.8476392754510185 -0.8131263584283718 -2.5775907701764513 -3.197580836133292 -1.2531498897994127 -0.931066133117281 -0.5803643473752349 0.35376136023388416 0.5198095253205591 -0.1433598720474328 -0.9075911247512221 -0.6628649039384071 -0.6480112992084047 0.8286818042901866 0.19945003997794816 0.24562561365960078 0.5621234507908396 -1.0728583412817985 -1.0969520751317035 -0.13477216111803814 -1.3078929594136817 -1.5985682967577857 -0.586223962738632 -1.3629519707945583 -1.165962539376826 -0.21879023560292676 -0.6194480584117401 -0.4903369279871018 -1.0435047701283497 -1.7904567254803214 -1.799836094709331 -2.9023645788931334 -2.1855270019682016 -0.6255411263311629 -1.963849136516417 
9 -1.2131816530507118 0.11810855494475085 -0.3299506835653214 0.22483184144509788 0.40331415324233016 -0.012131732086628877 0.4068194722347545 0.5113542976085554 0.6556741178009627 0.357918230618067 0.5942240787288621 0.10846386630531034 -0.29700610184072596 -0.7735877559542597 -0.07983599261691049 -0.6708117163219852 -0.8496835189433755 -0.2853197570673708 0.2580268528083298 1.0887150459249457 0.24049515670948934 0.06217955638781311 0.14330984363413835 0.5191666555415506 -0.19278747827920567 -0.27592470570840016 -0.41766184167219594 -0.6489615220981529 -0.36041037410117943 -0.4455286513317238 -0.5438191293588763 -0.9063432966540843 -0.8701090629093683 -0.6461992542490794 -0.422439762435031 -1.179710182382407 -0.1970331528751164 0.20273456312180446 1.15612589270714 0.43928395120232283 1.1739294996555354 -0.0025920548072649614 0.08003551005544207 -0.881864316709029 1.0825504576602576 -0.1518519723620695 -0.20432197469262975 -0.04764737231432918 -0.11321782748153399 0.7506760162193984 -0.5786509688378861 -0.5702042760974586 0.4249584954513513 1.3689959754075212 0.450361466768687 0.5500822334515125 -0.7045262747033867 1.4703766797117925 1.7193934344361295 1.5312252486747078 0.9918474094334173 1.6260850118316028 1.36651726463655 3.0469857598922943 1.6959399341298897 -0.0059676869665296 0.7182373026449257 0.895040302234046 0.04071627215223819 1.255664673252431 -0.396890302113152 -0.07396087358551841 -0.5018551057307507 0.28952126723136634 -0.09947705191240923 -0.14171531942560137 0.1723367226043327 -0.33144127399487944 0.7875823359304429 -0.053667970892824005 0.23428701363430404 -0.28292675601515604 0.4483596374932952 0.41841593166202345 0.05810041438735634 -0.0971081116182382 0.12501128924507324 -0.31673314250774104 -0.2422041269831785 0.012066136159396182 -0.20888098554874 -0.037090699842129475 -0.14740701466380082 -0.4774094735945209 -0.39654280509238315 -1.062220827848627 0.026448417983213873 -0.3479048107640905 0.15140815831835572 0.03849380935363242 -0.567618306791931 -0.3477929512520685 0.00846766499806149 -0.7763110176070389 -0.6111272402501468 -0.48522134744933026 -0.5996275821126351 -0.06058062483073953 0.10894566068135991 0.025764582372002014 -0.7796645619857281 -1.3062075477441664 -0.12594355573692417 0.9667547557197051 0.33995591976575523 0.17841344823945524 -0.43300631986122806 0.6395267424621758 0.5780038218195088 -0.1648884003925992 -1.3917148404493862 -2.9166435715069965 -2.092327438653438 0.30571729770304124 -2.352895227898457 -1.0092439496635826 -0.4391117922127554 -0.8717480094254503 -1.0011972011198722 -2.0608527418508373 -3.145841797960251 -0.5985569960960947 -0.9462591713716277 0.05811563786091456 -1.5417712742654301 -0.9017281460094335 -0.15476818755519595 -1.93289072247847 -2.0026997874050387 -1.2106521963927466 -3.6852011544266015 -2.8844515731746148 -1.7622960538369814 -1.46177742836747 -1.0732452034986248 
10 -2.251878279329498 -0.791582517587212 -1.0375653193540855 -0.9335477609964096 -1.7492413714711157 -0.9145848970466547 -0.46184724458356957 0.36720192496182186 0.21070384374458773 0.0365300288499284 0.11389104630968944 -0.32575802220787525 -0.4840388820766851 0.21257941235222086 0.7027822482568645 0.4659473557683024 0.16286600278354238 0.549605621503708 0.7643469118327402 0.7408186433125323 0.167712215430724 -0.27561328084581116 -0.204876181478223 -0.27429644085226723 0.5029532215320329 -0.032249749033388314 -0.312967462710541 -1.8322556270255776 -0.6769539370207072 0.09578624925107744 -0.04859752607024212 0.14797452371591358 -0.3949666456864492 -1.0780869034612761 -1.4263761463747306 -0.946205001597296 -0.8464876633256716 0.8688019125032773 -0.985100335682472 -0.20462679413380774 0.23168954632708533 0.25684870109795466 0.2374063560313674 0.3432096709383018 1.4235532150669437 0.1865808286092966 -0.8204591543969344 0.40649599764569916 -0.3357198506322058 -0.31155971929749715 -0.3014353742940059 1.0871526127728603 -0.0581913526980966 -0.9037614058881971 -0.4921160809044073 0.5133751240984588 0.2755708397752801 1.3321733984171076 1.0897862360248614 1.4683338632436167 1.5619767681592251 0.8772673077156161 3.360902197161075 4.330853442113495 3.002611534289729 1.7929765102764068 1.0928091504006148 1.888631381281442 3.334994894058324 0.8002242361714872 0.2517237504529253 -0.17993476844374565 -0.17370609705604792 0.056639351758678326 -0.06708197648567937 0.6104324159697903 0.4094601553432414 0.8904103023940988 0.8471776758409966 -0.3122057011670566 -0.15366949043066916 0.18890729948005652 1.2363869066487303 0.6944035976351935 -0.06499123968923204 0.3716362579009322 0.15197267078319077 0.2782553283171434 -0.02213014027574375 0.271987362112825 0.006996807223766131 0.2552984929075777 -0.6293515478521132 -0.10869757407226849 -0.11069775583143356 -0.7390896688233674 0.1365768914624178 -0.5596805555920006 -0.22217306289369695 0.009151015062366319 -0.28145654584952823 0.1263448348968003 -0.6282901546824589 -0.7780541002515992 1.606129092493573E-4 0.5966732257242202 0.8178506456585626 0.01630429869576591 0.21484364017142832 -0.9237593900542983 0.750902828116706 -0.07254673574892363 0.6441542959518988 -1.0837720136297941 -1.6564194828536163 -1.7197466188518409 -2.95099504299607 -0.8435473306654456 0.4620336578106424 -0.9174853326478493 -0.00724206792022203 1.2970163739731884 2.584813513058574 0.19960935473271524 1.0725882482674214 -1.2931693488160378 -0.02470598445110679 -2.081825752786015 -2.233066903319779 -2.3850322703479345 -0.289182934127147 -2.4769787554933496 -3.1720239276114586 -1.1545353861325844 -1.1752970682346453 -1.0220339792050872 -0.728731211666341 -1.1088010847130378 -1.5604175278922594 -2.1656506523788197 -0.13101026942970345 0.7481179261298404 2.4973095276759953 -0.5839623278224785 1.2895639416423552 
11 -1.0360431924963025 -0.7214026195759068 -0.15003247910048478 0.09945027801342697 -0.18809979281407763 0.2554645505493873 -0.30661844773281394 -0.18231835540906194 -0.6573502627260627 -0.7731720598134059 -0.007022170239323356 -0.12000054166507543 0.28921384478352363 -0.13574690709693815 -0.7109638612917922 -0.05894425773326431 -0.5062398985421841 -0.147439900649419 0.10029714132089099 0.15934278712081693 -0.1994863277307255 -0.1583316923836877 -0.024828444495683305 -0.2992970271702008 0.7791099920205817 -1.2930909625439977 -0.36830501778829694 -0.5947113393823503 0.29874161098257557 0.1186798007503497 0.7703102683910614 -0.3459532370747078 -0.39658219972203074 -1.0137257513547513 -0.5359724375882473 -0.8291884911024656 -0.36576253281089927 0.6703161572779055 0.3984593941966317 0.6625179897094959 0.9145623403376488 0.6823114632940993 0.2959632201792028 0.11845804809214866 1.2169637576673578 0.6622961964796573 0.4693233832779127 0.781605164425884 1.1804720868581322 -1.8454625628515922 -0.5931680386863326 -0.7984009074737458 -1.3931854556804357 0.10727687480422805 0.4162590628143347 0.7314562971540781 1.2401452128883483 1.8284079445593873 2.401309978562727 2.5537220656861823 2.327225764299643 2.9756946483836892 3.9174418817701286 2.0947475558825372 3.415979869214 2.246539062815263 1.8415376334537914 1.8214706914202554 -0.1846682088616077 -0.8009020241832415 0.17492118066671372 0.03376877780549374 0.11329193105810455 0.06143830260459977 -1.527572121693386 -1.293460481106852 -1.6778036686515851 -2.2475523278558414 0.06426221368936541 0.0702646178016022 -0.10190162507650742 -0.2034507284958269 0.4946497143474399 0.45973356018324774 -0.834770951258826 -0.9997270915997336 -0.0049067216460098985 0.320853185230453 -0.0386434462849343 -0.4061854442093535 -0.7133833162836227 -0.6239040809930062 -0.2725891240702554 -0.3131357182511135 -0.5392222154683561 -0.9040715718963879 -0.9969741032368226 -0.739767774191435 -0.42101686021102586 -0.5116942082267958 -0.6168580812212761 -0.5478534897805138 -0.6123416759499127 -0.4657571838684108 -0.14348743785857523 -0.5257097010748785 -0.19343292678464777 -0.3628471367392726 -1.1612487399178142 -1.024052479320684 -0.7713102432243072 -0.8748151145793404 0.1923971847517078 0.42025172182222575 -1.9463197244318842 -1.8472045362253036 -1.0059037089943692 -1.4840307321329642 -0.6442651613980265 0.23259370891565057 -0.29069118093575863 0.536377671378629 0.5812859552315828 -1.8500814839734319 -1.241107974136152 -1.2542338559992057 -0.7962964535511986 -0.4310716671803479 -0.6464111618625235 0.23331260419011055 -1.434054889052547 -0.5859420463701915 -1.0431289593163897 -0.7821882787898253 -3.177533890988752 -3.6528215345851986 -3.2991813435693453 -2.8283154061189215 -3.2813126259144907 -4.176389045655432 -1.907151855698362 -1.518339750125958 -0.818369386269305 
12 -2.6907607412598806 1.027897477784484 0.06941557524367871 0.1824706055164336 0.2563647606237764 -0.29192592483348856 -0.2297315543495437 -0.38337640824648767 0.9767987438406052 0.9287809587141748 1.1650706943295912 0.7316106480489015 1.0045578661874868 -0.09016418119368787 -0.09016382464670598 0.21999502924548375 -0.5206656314344207 -0.8950714206368992 -0.11548035055878875 1.3270298986721973 0.7519076933314348 -0.588389941330816 -1.1411005279075268 -0.2792577148398444 -0.8734973280372892 -0.7295385070846636 -0.8628857223685719 -1.9312890675000993 -1.0752147441358955 -0.8265709713892143 -0.9685029730213076 -1.1017551012578386 0.14431155336001913 0.15591659968222032 0.19250351979568692 0.22731614822519722 -0.341220891802326 0.37310061628526664 -0.2515481073502652 0.8291132753860149 0.7148179516715235 0.48465150617941616 -0.19746304620758598 -0.1342908971192327 0.5792936442352574 0.9103927904074668 1.2653646722703005 0.5192307316956252 0.7583124364200755 -0.0724672038503137 0.3530046798571476 0.6842033281464799 0.23160030011806373 0.3911150609343249 0.5696054281121895 1.2568420979159305 0.5230991398869803 2.5988402204252203 2.056745704089516 3.6246909221295933 5.141466320348437 3.7103080799801105 3.677079740562639 3.909005820718489 2.379906716108537 2.3559539191227534 0.8898007335097846 1.1965122229825984 1.7333024598058218 1.2583756600194909 -0.24297279882401537 -0.5539270604867021 -0.02112883421880245 0.5367739406381447 0.1314592269126483 0.050631729546883594 -1.8099938375994484 -0.022250517276989585 -0.5924037364718948 0.3859567211669634 -0.3047716832835938 0.12888958826906735 0.8173328982517796 0.039813387910045114 0.29523882474496893 0.06639137342551991 -0.31114605398653095 -0.36866942691508814 -0.4329161770730372 -0.6962488029094654 -0.026280569654106762 0.18240686944344747 -0.7672091476962012 -0.8535039997570558 -0.36132076305123884 -0.016406898370077777 -0.03624372968347678 -0.6490444194764726 -0.012348967376423825 0.2022482166780048 -0.8944272842646982 -1.3977490460896063 -0.232846599099939 -1.0061831506614243 -0.4990215564931445 -0.18731593077932046 -0.9436518158512858 -0.5412151499740019 -0.7593046590961497 -1.3665546007337377 -1.7115300557125928 -0.3251172297104271 -0.9126250646942391 -3.8105911683762326 -2.352755464181561 -0.7787921287355251 -1.3563373888922894 0.23567810982127146 -0.8679770428258073 0.46682451710652473 1.5224537484018505 0.6513069679504282 -1.2061401544579662 -1.6702826922909089 -1.3045585522955019 0.8809239511492288 0.583766080437291 -2.2904628138642917 -1.8837186487776343 -2.5780821032748227 -2.999732366307817 -2.0871044118325437 -1.060771318724421 -2.15495107863102 1.1746040660526507 -1.115256326367735 -1.6417388649642115 -1.133335865139037 -0.9512214228401085 0.4038631996871841 -2.27714291431767 -1.9345809671492253 -1.0658220265394753 -1.8438962399807781 -1.0432594452342243 
13 -6.6616312342437185 0.11485124762369173 0.08869129641935272 0.49371714629955166 0.4243263691143376 -0.03959495281302621 0.25561112819471055 0.5406071654365582 1.1232372721968047 0.36225938860319107 0.15059222382819354 -0.7462443151752114 0.0420623664435274 -0.14404534206537156 -0.4255443087457044 -0.08769677821525415 1.0853783802235024 1.3677282448434311 1.458537008214264 1.5888465220029298 0.5225615768251851 0.11558014594687227 0.5608304185081312 -0.9591855812211074 -1.7153308884588723 -2.0855517752367083 -3.1036410111692154 -2.8931753015647885 -2.812611923131582 -2.8509869999696247 -3.2135215879184154 -1.9905269432749455 -1.4107947665449934 -1.4827853515276408 -0.8778280210301677 -2.1308851208944795 -1.1923825744499195 0.06407676466827267 1.0003113009807387 0.1290475366987826 0.007336158916058006 -0.602311524277145 0.10710573982468105 0.16531819026530675 -0.6157413806495429 -0.8031301686223311 0.5091739844433698 -1.3644919961637818 0.8620196796620951 1.5889464436517304 -1.847341770712736 -1.0256600780639704 0.5018390173881652 1.3837927218902295 -0.06757291896177686 3.30481790258257 1.867489221236216 -0.9591209767873501 -1.233530939251378 0.8901413389169615 2.7737190393299476 3.2255502629840893 5.405057887828574 1.9008140041750692 2.4215196703508757 1.5288637024028953 1.6645637813624163 0.4329358433878158 1.0392190915762867 -0.012444115442463294 -0.5003136734886701 0.5751316038504464 -0.16491210391993777 -0.3267109473099672 -0.29048877263819134 -1.0291925751746622 -1.488724525272012 -0.8331454613504761 0.5174903337197027 -0.13284000818566258 0.18678203946649533 0.5142397557841649 0.5656744391718899 0.42303670179451835 0.14867165724979053 0.09809239442876247 -0.07959831627427892 -0.1441971225578423 -0.6778359603259556 -0.5842779208717945 -0.5014369587141375 -0.07099734746525907 0.416045808305223 0.29986532323224246 -0.23001876233100066 0.20119452189332365 0.5656605984698543 0.384568140978111 0.13118162740371964 0.029615730441241085 -0.5316424855553378 -0.15148355803375757 -0.2053453477137561 -0.18739987448099155 -0.48391987497187305 -0.4679685816747105 0.09969751683696737 -0.02068969416738908 0.4766760097471346 0.37181339143521214 -0.4204194829018135 1.2477338682351835 0.23942382160961873 -0.28551293754468926 -0.8599333584269013 -1.1549670145764892 -0.3399814037868362 -1.1782208540669363 -1.4624375450320355 -0.431843450434391 0.5854135662973797 -0.26878867024041597 -0.08854921579735173 0.3900805630083798 -1.6337403781305648 -0.7658055775529146 0.6459294328364458 -1.0095536269709333 -2.358696067155976 0.23278819461358918 -0.4175779441826202 -0.8925224558127267 -1.1767288148392108 -1.0205747445000637 -1.9102943004794664 -2.481473007453815 -1.7803576170457283 -0.8373074369276035 -1.8447311250612162 -1.5381148117007795 -2.55259146752471 -2.7528913089438376 -3.512612612481742 -2.088093766684977 -2.9789968500491466 
14 -3.1300236918798046 -0.14926856168628228 -0.5258650930557086 -0.05344726873716924 -0.3592281877465663 -0.417745274318243 -0.17659089269428568 -0.42095387972962517 -0.14388013527660637 0.11068323264561843 0.8751289286410557 -0.5778239333172719 -0.47926386293762785 -0.3684973368566337 -0.09152408265275451 -0.7492386242175216 -0.22602884198116732 0.16995156512407367 0.7716173562698763 1.3822489210332172 0.27965667843081854 0.10384813807748355 0.47656819612780355 0.6519439167697025 0.012216605313759451 -0.15113059104559165 -0.6308259109162444 -1.4132917504476326 -0.11656138185290772 -0.3110773127853673 -0.2457320591122223 0.17339056802797195 0.3709289849183304 0.0714665344375989 0.4313034403444809 -0.717433454429096 -0.6387038479549261 -0.3119051881535053 -0.2530037715977352 -1.6440190089821494 0.4411956399681267 0.5428942014582232 1.1967993615872081 0.8149946498279623 0.0413232054254692 -1.0048240837516866 -0.5938447473630729 -1.0508114218525957 -0.1555894538714659 -1.6917395660293713 1.447656654652712 0.5783034426323481 0.700890014371968 0.41439817893889064 1.4841852335196102 2.2925887049268727 0.8768433711395153 3.5000356885030115 5.562168067741085 5.613248352794685 5.451833142669021 4.052311983118658 0.660348044012192 0.3117000716377236 0.6594789660410416 1.2905536075379351 -0.43981243243410245 0.44954339654780123 0.21637128533955874 0.1265092226075154 -1.2571607267213845 -0.20926991948082263 -0.21544362108688977 -0.13257989509931956 0.9653171501083503 1.1985239029929078 0.7437234986189126 0.0847539027159878 -0.15521314514954795 0.1714396214275863 -0.03798736516103844 -0.04928983315229942 0.7552315019352821 -0.8074460855363765 -0.5528523368375561 -0.17053144559569092 0.043526917560019626 -0.04482495750576704 0.12488516764197899 -0.12793625849523887 -0.1890923526219695 -0.7911359274609444 -0.4496820222696292 0.06885769912372956 0.6634863120077646 -0.5109695126476304 -1.296728845437197 -1.000189539621576 -0.3680263161182626 -0.34428628672776734 -0.22949005289082666 0.060621245873550715 -0.16587021649520023 -0.9883820639618622 -1.3350304488869733 -0.5619581101101738 0.34993529482926816 0.5305759697222712 -0.1646587079785305 -0.9641934086997157 -0.020387602101053646 0.27463345948111656 0.43534809314521467 -0.4875233950648947 -0.9366511764416073 1.1232749362779006 -0.3319604008486947 0.8013260165310199 0.427343983250272 -0.30398032651566687 1.2992023744099583 -0.5542164102030418 -1.5939292872064719 -0.6652943392267566 -1.174929272528994 -1.3082915413834315 -1.1242073575687266 -0.8778559102226363 1.8822354077941506 -0.22820426717955322 -2.717370021434202 -0.6630222544238382 -1.3385782909265682 -2.77188338810612 -1.6954805839877203 -0.1112587841926169 -0.693486431438688 -0.04373455624256594 0.6587830360058113 -1.2216695402225817 -0.777446177645246 -0.42717084459255433 -0.6583035156115924 -1.6841326097044425 -0.5721514314593225 
15 -4.806448208409555 0.7603628633091306 0.9557482825424152 0.0506651522790125 -0.0224719829533623 -0.06980644890971963 0.018266983569995003 -0.12982053524216103 0.25226102288170127 0.8128254982715318 0.8059548389052169 0.20832563498305434 -0.08020665642126905 -0.4508663448419129 -0.35833283957323686 0.07192509824445471 -0.10159440521399161 0.13348570065905874 0.5132081130524107 0.8209642133279396 0.410733563223174 -0.6580774064368803 -0.8088255356321947 -0.19986033005152404 -0.3112197997552422 -1.137347334704664 -1.1188360144322835 -1.5840250902652733 -0.16941358362855274 0.28353102867418456 0.6460581241536173 0.4444290211019558 0.2757295503527599 0.4997995550001135 -0.6574900052113143 -0.4779074122052632 -0.45533345736569775 -0.5250370068342389 -0.6074520999895354 1.1714379851296834 0.8138078138168245 0.19782917660716137 0.12015163258987983 -0.08492133786576733 1.0324648009337305 0.298213419261374 0.35198518633446363 0.8163961788152658 0.6025576932022607 0.604388053005159 0.17985709513223044 1.0565355026576526 0.5937635903376078 0.7503569848452214 -0.14647006533754392 2.3680318433978966 2.33424720618246 1.587075409712222 4.7043851512288635 2.6452377873446835 2.279973854707542 -1.235158871293622 0.7859603736979741 0.8489922315844283 1.3430789395181395 0.9391585578681859 3.8669375328403977E-4 -0.31388874057215144 0.21800116718287343 0.20963497826296623 -0.7897751779974368 0.16878191414669882 -0.4634640769980887 0.22412315494696256 0.6832774869681203 0.710705983073172 0.42879562606052446 0.3652544335962176 0.30668112683146403 1.1656656643103531 1.2316169617863062 0.517336942587081 0.581472595006478 -0.024105334111240065 0.4677594331662974 0.04988986369078982 -0.0989078222130545 -0.6995084794706189 -1.2830194372987827 -0.05200978503587331 -1.0185964325609604 -1.4471102717119957 0.07880635573247019 0.21533142743269018 0.35598299495578 0.04641240568002839 -0.18578150822024217 -0.580763586276634 -1.3592097123058768 -0.49999145530278066 -0.9006151928648934 0.5346089444998503 -0.6244504061850576 -0.7801601688733705 0.2039272991230452 0.22094945941498154 -0.25781909988470975 0.011071961235882714 0.5008775871330551 -0.7099551526447999 -1.892416921942088 0.4031438841874957 0.4634282071843489 -1.6501329610313633 -0.09618436982418802 1.0231513611636145 -1.086330962180558 -0.09600753633083833 1.0084223196666389 0.8875292720734568 -1.7846930592865304 -2.5252959928944434 0.14267752446795162 -2.6413271745324183 -0.18605866959146675 -0.6451932036748366 -1.7141090217994606 -2.4827182840369946 -1.054884131561751 -0.512931057547997 -0.5708904399472403 0.011069353458323555 -0.6993524441276391 -2.4332433445462534 -1.0187543264003347 -1.4037829607819783 -0.7920566904453612 -2.3354473615456692 -1.2631578323191834 -2.1239333876425546 -3.5660614667809165 -3.263273210075959 -0.25182184457122175 0.36755164884727304 0.6633472401158834 
16 -1.0906285593159306 0.13994950983846774 -0.11273230264768458 -0.34548884491957654 -0.36034326291390073 0.022917084792189936 0.15404840104588516 -0.6134119260718375 0.39148865618652884 0.8204344127795126 0.37569837990229316 -0.2687121710905832 -1.359865630655218 -0.9466913119775497 0.5811020251068064 0.4469507334369973 0.1513998479452851 0.4016964001849856 0.8475729568177713 0.931135103801418 0.3425553240970075 -0.24658956172138383 0.10064892920290844 -0.6285705238453934 -0.2652716504357594 -0.6440357108597944 -0.6435566075640237 -0.28443091806366605 0.8275360701173134 0.5684951456547436 0.23168068000637965 -0.01498177819263103 -0.16146926994720023 -0.4927308196280657 -0.34859788914067763 -0.39448750478681044 -0.5038229602280647 1.1996028290624043 0.31338748501052527 1.1402925974475313 -0.05741381147080639 -0.7258085630141747 1.0440415317398977 1.509655822833569 0.45218101694067186 -0.04005470213807903 0.5864044924014578 -0.10039727240984767 -0.24675623116729137 -0.14611143543061567 0.751125564901389 1.857468135948335 2.108101437985078 2.8055101104315043 3.3571223718572427 3.8406637034882287 5.644358392148532 4.501324175464961 2.755922825325542 3.7658859555549746 2.183540395107326 1.6425891772239032 2.1854227779778213 0.6644154667162265 0.18781722039883697 0.3316995529677696 0.6710766760833835 0.014064995496651331 0.2862012207402379 0.09022411719954967 0.36000017488451086 0.45901783668936963 -0.40600343439758035 0.21375079916940984 0.08302256077338756 -0.3185401292425816 -0.032315635065338556 0.7542743370987253 0.20825958119036997 0.5089555773515861 -0.22564321459498365 -0.48831641691126837 -0.5772462331277379 0.4488592868091375 0.5510144949169313 -0.2785027885976393 0.4345881324168993 0.03262623127854888 0.018754227512031662 -0.7675618185289574 -0.26237973725044794 0.47017538641565115 0.656822005963349 0.34757329577653256 0.38643241682843504 -0.41194050292166773 -0.7951242813007067 -1.1069685350628704 -1.2771561897231611 -0.3928212665855525 0.17859959228973107 -1.2780065381601138 -1.0093371896770813 -1.3794976092534041 -0.6097783737893312 -0.14733365381302574 -0.2558040135221768 -0.6125003310721119 0.4732303400113898 -1.071549720965672 -0.38887150979065915 0.18102274676844834 -2.4781143929516114 -2.468621730796414 -3.1724315576626996 -1.032027344367877 0.08134771742454802 -0.21325591462559695 -0.4816712425922564 0.2042035906435319 -1.0607196632780744 -0.6639598843557903 -1.1414723086236231 -0.7420761704684014 -0.8968510712907418 -0.761542413350495 -2.5254415418607596 -0.3582063671550724 -0.980770039907785 -2.8720475606537543 -1.958732976221351 -1.431561284950037 -1.9348124755490024 -0.6998926857357599 -1.899990712380592 -2.0807371994706867 -1.0196523239685658 -0.4424031346717485 -2.0135742703406527 -1.8358459463109105 -2.0206473480368308 -1.8550284458865385 -2.5047546734039354 -0.7504656008366362 -1.0725076329543664 
17 -2.9503758125311172 0.45071781263977806 0.8753692523271762 0.2500637127724291 0.9990659596792674 0.7995295427296796 -0.06381569837393708 0.2853189354972954 -0.46502115406961114 -0.19087820845592524 0.029082283637616602 -0.4602534210708056 -0.3246583506575674 -0.8983368164793842 -0.40929627475863706 -0.5124682841803403 -0.2448804607481899 -0.06648806048638996 0.09365900039485664 -0.13641587174186817 -0.12564863688467945 0.020917074406333894 0.09700186918979645 0.19323483933314617 0.798858739654419 -0.25340870140164823 0.23773606502314532 -0.7100353503635877 -0.29402935779022754 -0.21613535890986177 0.017240350446261057 -0.6175163513413799 -0.4311530122680478 -0.2565426242110323 0.10948088734122347 -0.20829526753891134 0.2087228355827919 0.8672183559254695 0.027172463365991745 0.6609340077898554 0.009822635255021209 -0.044038442784225834 0.040052920301972 0.13760262818145455 1.0589469830159266 0.3512762006346985 0.31476653776647423 0.7245569530536246 0.2659343526917746 0.8069355887555344 -0.13033858989066 0.6849283651368712 1.9988432179274944 2.1867752694106986 4.488600483268519 4.766743957533224 3.4567743188295696 3.7514876588505253 2.691830194396025 2.891815410004096 2.9328975873394647 1.270866647654011 0.7957966351355193 0.3311748254036499 -0.03391097064778599 -0.6178240982857093 0.2518920141317582 -0.3729284260984663 0.18953670120543498 0.22607002215931477 0.6033566546904868 -0.04996110647280504 0.7304038024356181 0.1322009755123196 0.4277502400314808 -0.18867925653246845 0.19553572605363428 -0.01605705316592462 0.17957963485849535 0.20814877734046627 -0.7381856729854397 -0.9797383480486243 -0.8793665469016232 0.49770146757126016 0.029092704701604116 -0.16532429677712787 -0.34036212988687586 -0.12104521991900775 -0.06057304410796529 -0.21924497738892634 -0.2972204470498669 -0.6391807455662487 -0.7147805570108887 -0.539877463239634 -1.3805445192480332 -2.5542242302511173 -1.9148545548719156 -1.3953525241599054 -1.1193243981404692 -1.0495547102330571 0.19021935198348877 -0.25099734473967905 -0.2666059268080215 -0.31539627847552265 -0.9544808925595389 -0.347240099179924 -0.09762134446284904 0.15693351519096302 -0.17778732976589096 -1.096867145456039 -1.4939616199809844 -0.5703248509553702 0.26387268676477504 0.049453294460831757 0.1576233758100112 -2.6072462702923143 -0.6281645437945133 -0.4544143211170356 -1.0557323134306185 -1.1003777482230004 -0.4276606955625676 -1.2418499022094205 -2.7563747266700167 -3.146641936453177 -2.152970971126414 -2.0673206043122865 -1.9067428325289415 0.37840974901997115 -0.5987638004928291 -2.1301776558629317 -2.350732171882282 -1.1732464960815718 -4.1991177458325915 0.09415170474497007 -0.3993311270086947 -0.604216326311426 -0.8147887240804262 -1.5186102613906296 -1.559112688699794 -0.5475335365002212 0.03753720533284115 -1.0221275487576538 0.8799807956041676 -1.0453024896725256 0.5992114068370458 
18 -0.1552370711221837 0.8724366820248284 0.5851397975703085 0.4010497942195912 0.4645905459703503 0.3902095257560369 0.24391174819556785 0.15416565452958578 -0.0022730161502246757 0.5463670516035517 0.3673867213554449 -0.009245930136146458 -0.3142427184454324 -0.524188595597632 -0.5080440102499154 -0.4562266055892069 -1.046901020349564 -0.1910134972358158 -0.12719498289856682 -0.0621980103698817 -1.2065241836870577 -0.9021352610479082 -0.9871590579969456 -1.5914993209572554 -1.6904300872171023 -0.9740810320877036 -1.1954668201789411 -1.7161632657249204 -1.4339717371373284 -1.3528334969629736 -0.6297935230733684 -0.5702044239425346 -0.8327059949777799 -0.9683926466221204 -0.1474238740815221 0.060574145892250644 -0.027181272904793843 0.12070652818158313 -0.358253385484574 0.2949987606124341 0.7656312383663951 -0.018287394784635428 0.7669856270702492 -0.15113147509915575 0.21779048871588497 -0.05616113411646817 0.3038955554850732 -0.003956069009782606 1.0909376071763666 0.9175688303033886 0.8368715249931531 1.0787973713478314 0.7133344657388603 0.9137502262869581 2.682350678639398 1.2046593908789858 2.350258565694831 0.4621486090462519 0.45738578470504476 0.8154858920414644 0.7865687162098056 0.9953764694270804 0.9378106809579201 0.7802746035793972 0.33438233883491775 1.2711384250426871 0.8236291819509336 0.6999235242521221 0.38309381374575613 0.7651256380815527 0.612288448714455 0.13525892440519366 1.10438758656909 0.13014105440576582 -0.15645844078158405 -0.023219876738167236 -0.0516068738716394 0.11832143859338329 0.08144140375822452 0.353213962675204 0.6307743141813058 -0.19870848141054898 -0.19791547779262847 -0.46278884410663884 -0.01930542517983712 0.12034324759873796 -0.2646022596501458 -1.0556354480234655 -0.5454673721326749 -1.9865927239067946 -1.523138796007792 -1.3366151638758932 0.048679102749068254 -0.16616854356970773 -0.5996868369479845 -0.5400975624127187 -1.0753057652354652 -0.747264412855412 -0.5942305020277097 -0.03591492219546129 -0.0819441297831626 0.30283161242130996 0.22059635617311688 -0.8568502498188709 0.11582552414304684 -0.3447160584776561 -1.330135855314602 -1.457593321318319 0.26076684373687514 1.4667574727969157 -0.05779019986181991 0.5519320514542722 -0.21213708647536028 -0.6528989871132667 -0.7688288953299942 -0.827975038271068 -0.8420726779566968 -0.7633979378305452 -0.07298815085159689 -0.6453913566736825 -0.6822245269782039 -1.0705352439922113 -1.1002814208263414 -0.9453097985430906 -1.1370455423981987 -1.1117976027567342 -1.4079803352433584 -2.339540603493883 -1.9821506502122157 -2.2886190106405055 -1.3122328282771352 -0.8812775289878891 -1.0905267474365141 -2.4183637849865933 -2.3309090217524444 -0.9020977762430014 -1.5495420630512853 0.73177859777497 -0.25676079063473145 -0.3078188148452653 -1.838986295890323 -0.18870752012810782 -0.5180316396037535 -0.41778866340630505 -0.2317350547608403 
19 -3.0489562867076714 -1.130551308185728 -1.704345099901041 -0.8882510638659246 -0.2230186792288651 0.1616889460875024 -0.10947488899394014 0.9479306243422512 0.19712233561878045 1.2288437998509445 1.8411367802911334 1.2632370698116184 0.2401791157624215 -0.16753714481162668 -1.0936053584613163 -0.514048744331412 -0.35134734218586017 -0.9914696547795642 -1.485309916797174 -1.0956280280853967 -0.4141783669761947 -0.19377191613220207 -0.7863376114305433 -1.1402625068230021 -0.6408310737003169 -0.7055302653970842 -0.9025469694704897 -0.9423148996049405 2.183420930531626 1.3574573301245367 0.555454222187327 1.024287072799035 0.7386441472566202 0.4687746022862403 -0.7164614340406762 -1.6245701659709444 -1.4134498845652579 0.27010689320276865 0.36296055884273937 0.7586313026001078 -0.1987746712489991 0.047534021892438494 0.10379406219386446 0.5513739922152621 0.383732984654192 0.590366045045228 1.6159946494906159 1.5703220825123558 0.6746482635515448 1.396959941741831 3.0798006142356105 2.61867225551663 3.849056652528218 5.056912461972277 2.8369270844689236 3.5756570250338293 3.5661222524763785 0.8367085109559256 1.489688451036288 2.299352078027004 0.00733177652938646 0.9767706926464651 0.6379293944785864 0.948185469219349 -0.028624446989308827 1.0798760702731725 0.4146061190736759 0.0038670333423701936 1.2655063495955141 0.7121029632705537 0.26932776372895684 0.9251635871554427 1.1673990988355931 -0.5645393864299914 -0.9656836742943333 -1.9979235731621972 0.26177239964617544 0.5509653520471978 0.9614898895029342 0.348687623132448 0.078267587540773 -0.08942088622897806 0.5061829639511078 0.31616373280536025 0.08086923913602237 -0.28809270349669047 -0.8342081284888097 -0.8699676435524976 -1.2549115746374269 -0.14708746173146584 0.22205151532955503 -0.10322376845512907 -0.019072852903142708 0.0638405617060285 -1.3120476098083884 -1.1186885444713675 -1.056696449165805 -1.2149656913502247 -1.396856516512025 -0.05380941648010728 -0.04101804294723209 -0.28011355119756914 0.07857421025094491 -0.03064529915632974 -0.021366265234329506 -0.17981069103346828 0.08595475466044045 0.4835495031981735 0.8776249354528035 0.14548542930879976 0.7801913798654995 -0.15721490360393178 -1.7133637857219204 -1.9499486803026072 -3.9702379714614056 -2.2166719732169513 -0.16442981710807997 -1.4466603765830972 -0.5628136163892563 -1.6308501310027599 -1.2752971101178714 -3.438603138901232 -1.7216913847747846 -3.1982790016357296 -1.304023704430241 -0.6674673061274786 -0.16955945556704047 -1.6717647141852026 -2.0204562489928275 -2.2617998751098862 -1.3520961177683077 -1.594297378613718 -1.5888391030197013 -1.5823639006581167 -2.6172419571937726 -2.3035912308260222 -3.4474572425142225 -2.3659250158730263 -1.6411454219693575 -1.8904599975453114 -4.1837319132718 -2.9291697414302527 -0.6453112274235602 1.7145918989635884 -0.2678340215580056 
20 -3.3241587477947467 0.11900562661634426 -0.0813426756566849 -0.16414112093691416 -0.1261995527422183 -0.18428212018904097 -0.5803564207401836 -0.47976123841429474 0.9466239859495335 0.6135962471020735 0.3708303880685215 -0.9660279430736597 -0.5628948072845013 0.02512835365260489 0.11658035917606827 0.10761509514796597 -0.2397724791680611 -0.27694683538820336 -0.06833592865729654 -0.08349542706068998 -0.1981190923434089 -0.07941906568001264 -0.11943019594918108 -0.1962716303772173 -0.39242372093684197 -0.6535069588646616 -1.0538118396207672 -0.781347028224532 -0.6683074938653513 0.892052723801131 0.8935978925036571 0.05768629018371581 -0.40542399861747097 0.17543226288996844 -0.05474695734424974 0.04254828331116332 0.45639190878982944 0.42615328804863895 0.397996855499466 0.5946629823040578 0.22251402959632577 0.6339936026847142 0.40840552486576376 0.48016858095625276 0.3856827142681516 0.5615544396780653 1.2335602097061071 1.8461965800319615 0.9513531922379637 1.8634892973508543 0.31122158181744175 2.96646881650422 3.335413438086452 2.785849325651138 3.4087287628117116 2.8593614092927546 2.012358901914415 0.6176173901134437 0.6467922401680939 -0.05399519768055169 0.48264345458264435 1.532046178364657 0.9809012900216384 0.34121912004702276 0.7577101768275452 0.7211820210659183 -0.28585036907915023 0.9356801463262806 0.24553951348061703 -0.47216897358453785 1.2169252158440242 0.6234630851251922 0.3382504347658222 0.7906088502056535 0.7103038802481434 0.055685903513192914 0.5999786165572005 0.12404908234920463 0.41140236208978226 0.09849791508515898 0.036991107382441886 -0.7028685888567003 -0.23988578997244528 0.16179395599765847 0.47330440266588164 0.2967270964542458 0.533626467564052 0.47672148930365493 -0.24200696411199774 -0.5731240137171759 -0.9071115854665249 -0.690161266407709 -0.2965338712200596 -0.14364177070619205 -0.7746639834927681 -0.410423088227979 -0.701826508075162 -1.1964359852590865 -0.7788570644707667 0.6774976118142317 0.6007984127609983 0.23279979077830032 -0.26608483339138883 -0.3827428360492955 0.6275775835320037 0.3309439568935128 0.0517889114880824 0.2080105560989565 0.08159390994156816 0.31300283503064114 0.14657494246381542 0.6601732411997784 0.3052115962952847 -0.09784752547865008 -0.7757662379066523 -1.2238523979838656 -2.3264065255654027 -2.690670412178451 -1.3001389875652345 0.23232389100558382 -0.7688181151221808 -2.1004174242622478 -1.8206776075184292 -2.700623322588403 1.1421585195251203 -0.5728669950035556 -1.3429954856204527 -0.35534123365728915 -1.8222152880078866 -1.4097491784329041 -1.1490263356776849 0.01707959695798833 -1.425627402265019 -1.8336446879940678 0.8748909032843177 0.039227194420535905 0.4913606335976854 -1.2297924614873605 0.07981729280466265 0.22364116977443477 -0.4811120961866777 0.38812402180918126 -0.6105066692798373 -1.8840340205971444 0.4960147754168973 
21 -1.3713267892232026 1.2234809264703566 0.3981568798229796 0.7493849781350161 -0.4121746542744998 -0.7412194069969734 -0.5583537259204402 0.3446114765314905 0.5808831800893361 0.7074126633474266 0.6774926462002326 -0.4626757017939819 -0.31079483148931075 0.06892818680565722 0.41508700509336816 0.8336573146619473 0.36620138674024727 -0.004810339662082202 0.27571003137186195 0.7559882167102152 0.3444699379713654 0.5192666141670589 -1.296689203490519 -1.283442903224156 -0.3993549548978317 -0.8079815712399872 -0.4108011155554161 -0.8795538298995981 0.5401718808412882 -0.10124341960806708 -0.5475113453725632 -1.0328432356968111 -0.3430080932621359 -0.8077545548647423 -0.7335893009817436 0.4472945136725281 0.81372334969209 0.26745466851258093 -0.07832901176395574 0.5287637455921199 0.6072555070410087 -0.9494116472392834 -1.3688571020583882 0.7120053287993591 -0.4600769821823927 1.7266562985043417 1.4314195374417156 2.5083317464834147 1.6846306912085978 0.7485960025008809 3.291019280037275 3.6551610270402053 4.5972252783698835 5.792179145689742 0.534203170954342 0.9123676017658907 1.1513530642905156 1.239586608950168 1.3091293375662256 1.8446984598634026 1.2631884490903253 0.20907865723495767 0.08641203066840802 -0.0503665728717696 0.1427344275496206 0.021179806360922666 0.11155594553694924 0.30757415450850994 0.661599796205048 0.9856732016262562 1.3470896422980394 0.7005434062758215 0.3889814419228888 -0.49972935560185494 0.29560736989693404 0.2505933782914662 -0.5606924002749992 -0.6608167450701752 -0.9120101458003148 0.10073526587708487 -0.018705422040341733 -0.9836549459448064 -1.1333937879908704 -0.3224367096937101 0.5949613718239973 1.1583523098951418 0.33542947636488835 -0.1778916351073619 -0.05505183466774638 -0.21602233972637705 -0.26749560661377586 -0.5579610345103697 -1.2292171522843378 -0.7934063765403917 -0.4876061705981731 -0.7868220965839079 -2.904852043043838 -1.7539374249741873 -1.9179755927806974 -1.2908751893130204 -2.0026183268784683 0.13986056720324241 0.17940953151247996 -0.5235309491502225 -0.9443677834427264 -0.06824646647600624 -0.1552967530064759 0.22409955343736881 0.29438061493179885 -0.9616435485526794 -0.7796900915425333 -0.11275096258063728 -0.307936364547454 0.790619749017405 0.5253292863895684 -0.4115911750532527 -0.697883250351821 -1.9991571123777399 -0.35369553708585894 -1.4238450068976785 -0.7737532077056417 -0.1888234898182283 -0.17663894641925776 -0.3132034080620953 -0.15407924463241163 -0.23589150612629922 0.46085906402371624 -1.2936681747370131 -1.7427526264751099 -1.4810115116627958 0.9675611465302968 0.7884554542674572 -1.654936320477182 -0.019654417013523426 -0.9701126203218098 -1.4439961105889816 -0.6746637434861449 -0.38477212364236685 -2.5819960898670606 -1.6074426333699803 -0.5293965616754666 -0.5842873524975645 -0.21497738402021116 -0.7129213701094596 -0.39833802709692123 
22 -2.7175907298756212 0.42370973099672066 -0.23538082466344207 -0.0020384949812934407 0.09868111331725632 0.6605070297663633 0.030391158180967468 -0.18924977461596781 -0.03746183172204485 0.32329241403673115 -0.224662627714531 -0.7244193100189357 0.17576698355726325 -0.10613151187627831 0.9083852225960893 0.20386388874872025 0.335036539547217 0.050631592580534304 -0.16098041616223338 0.27678215650963595 0.1697132665202797 0.15505774512385506 0.5067233836255465 -0.7163663473810328 -0.5531537261526122 -0.9455366287722645 -0.24393846120222842 -0.8669444674342486 -0.06742405837944715 0.005834802503082114 0.2089552781275119 0.3065950977431341 0.14401308188663325 0.18207117509036538 0.5589997810599607 0.5426333074684121 0.508722617242767 0.722341913003892 0.5533914693539594 0.7605274744157908 0.4809811629932842 0.8377159790866449 -0.3701743592101595 0.02254992147911472 1.2898606597756348 0.3089653893348846 1.166073026941691 0.8437515152982972 0.5032200098443553 2.0823547473212836 3.668062615744919 4.1531361698256495 5.8312158573619985 3.5833600034911837 3.7255160838548735 3.3355527192231786 0.9093261792440748 -0.2533783868436678 -0.6578348847520672 0.33350635838507825 -0.5133282712028919 -0.2651674054667159 -0.1781680027715548 0.5621279450850004 -0.32800622000673185 -0.13076482768501274 0.33982436460814364 -0.9733317557853797 -0.12591091239655608 0.7617617131265381 1.459791098297122 -0.027910267815890115 -0.7575324913123149 -0.4216840735407072 -0.5734242733060452 0.5188690749734953 0.8639081775460593 -0.10451302882233987 -0.39731797825883486 -0.23156631416413828 -0.7685238874292335 -0.6340198143296842 -0.7021370862791103 -0.7480917396594332 -0.5960681582328651 -0.13181487369539263 -0.43555260178405036 -0.33626543145231697 0.4287593181454187 -0.37875554728669625 -1.0362223105902046 0.22312337234052426 -0.04711679378284283 -0.44264599322714654 0.08802838078730504 -0.0747639006192424 -0.2734172998525136 -0.784972872830583 -0.6632596569368968 -0.6361766535495905 0.3312591193651197 -1.2210452655796031 -0.6508861425529872 0.10171331222513995 -0.24713661851326157 -0.08461177915940542 0.08833786930264459 0.18707598943015213 -0.311906210610975 0.3315935945797313 -1.1949519195997245 -1.5568888821116733 -3.077740869697391 -2.153040303578668 -1.9793437878488656 -0.9717505200133429 -0.8985077270674006 0.23583326790065978 -0.8430128840627382 -1.2028547611686655 -0.2853450044469275 -1.656660081441261 -3.614003042219535 -3.07360183790681 -1.7483037208666607 0.43794021058472493 2.262025565200411 -1.5586464417856476 -1.3413498682571465 -1.3762983528692838 -0.7595184488897679 0.1005381130921514 0.22363444022990364 0.3810514973444192 0.3479423826180922 -0.38954524359423043 -2.2811484584307338 -0.8953568367973068 -2.187216578033632 -1.8012494520768254 -0.5757594928563903 -0.9729461588879281 1.6738147315823837 0.3913289323507052 0.35713524202724267 
23 -1.9956131056028852 -0.28323622537456633 -0.9616880883291479 -0.9035192001491719 -0.615933832815703 -0.4986444438608358 -0.8861739102410446 -1.0560911471069607 -0.17303354504795576 -0.06460345790277071 -0.21366036844447395 -0.6999286870829523 -1.2625285806989097 -0.7184134138820548 0.6678957888901699 -0.6699763749556271 -0.5215024857359256 -0.0035699715979806007 -0.6810959584624198 -0.30955097449216795 0.1377754391491963 1.027161070490454 0.6355503404766223 0.058516244173927145 0.021909112281496952 0.36535931365583524 -0.08055580853491 -0.26735743782433025 0.31863290354933604 0.4464509211307228 0.5913366389097365 -0.047179643975594876 -0.2710778574461384 -0.5591618796132305 -0.408264906765513 -0.8342820794477712 -0.7502287600505774 0.735335436162759 -0.7764345514222305 0.03376310901667106 0.7859001897051041 1.2066762016309598 -0.36551603142039907 0.1611388430467003 1.8252820769820053 3.133861126299448 2.9531021413779333 3.3330820186576275 6.259534355631365 3.1707724295837543 3.1203846053421826 3.107518089974941 0.14139501041736896 0.9152634188835382 1.1150430466726766 1.0857860604485454 0.8923469848436749 0.7134258523886032 0.41770926863825353 0.0319702799380051 0.4429600641273949 -0.12073155310384306 0.6720084545221016 0.839931155186511 0.6402994469976832 -0.10621374907324886 0.1642507117433593 0.27896997671953516 1.3277787596536634 0.698653536646924 0.6687041149033535 -0.500193310693585 0.9801044894462884 -0.6320727863340064 0.015032591903851263 -0.44984104112865203 -0.058052976680074794 0.42262686698382085 0.1255455704009137 -1.0018777533761876 -1.0768529823812099 -1.4030740336369103 0.35557853310674076 -0.20184049746179888 -0.816373500570993 -0.852659867966099 -0.8945338885891927 -0.48689038887019614 -1.1433445668175481 -0.7517987908023085 -1.3184940973160957 -1.3894199522828234 -0.7583823711892955 -0.25499226141043574 -0.3537190253847708 0.28705679409990664 0.23689685469369878 -0.7151534437355443 -1.9158706212204064 -1.1693184317499112 -1.0003105275405308 0.9251737316370474 -0.015464983776628558 -0.2707097124505299 0.3151383029899106 0.7099636398351328 0.18676859264886275 0.1340138132912078 0.27711023774696397 -0.9247174909702555 -0.03185110364853941 0.25921197939135865 1.5827725950054925 -1.2288913641107324 -0.4994556514669434 -0.09787638944397027 -1.7124768849789003 -1.5358389351877886 -0.43271391592525615 -3.923818972253556 -3.527896742243114 -2.667820854752739 -2.348227433478442 -2.1155388188358017 -1.4603678924848773 -2.5253830626955915 -1.287791755930776 0.6100288968010734 0.23004663656657315 -0.9135727146992451 -2.255659125537504 -1.2640684438195329 -1.990627665127775 -2.362369732558415 0.3119748931359321 -2.3015807820275125 -1.5178214939086223 -1.6802424804048217 -1.7948382695764642 -0.20280387222478893 0.12660855196498538 0.6666702256418797 -0.5929074983485769 0.12394802320332333 0.7846056054598002 
24 -2.125007244004079 0.028825247357615925 -0.6422701188078829 -0.1197443935699902 0.0323322703410356 0.2153685109030555 1.1204540333569473 0.7958098759814709 0.3886230013664323 -0.5939087817431835 0.40040625767865456 -1.5276655766319256 -0.5570625549771693 -0.32198824667817333 -0.9323955403897479 -0.026163198403102265 -0.5972329737932291 -1.268968507801682 -1.0115754636049024 -0.9696751250610722 -0.06712445403041617 -0.27935955268025214 -0.889900323980684 -0.9676000708102833 -1.4334417254152185 -1.1556806622695435 -1.4554028083511528 -1.2896954142365056 -0.2523925690809568 0.08971164333961713 -0.30916780283205675 0.4672752696581767 -0.5909736713092727 0.25164160557214865 -0.12440705474077021 -0.10662981517458606 0.0738763715539087 0.004811132330301726 0.022248009099037673 -1.2059504164239143 -0.13067340305762978 -0.9879587364497436 -0.13027217681634443 -0.04729442634468822 -1.7198956921708088 -0.6857285671137061 0.5027737074418311 2.728782256024811 4.551355774230486 5.565571955415564 6.415311698633821 3.368168848017688 2.6134271582707815 0.4738244014760755 -1.7472446478210228 -0.8278281157932321 1.3595773801171667 1.2985135256448708 1.8476034785530175 0.2593116871095169 0.2929313666375358 0.33809515406741114 -0.5465559279673451 -0.6892948746895311 -0.12247200263856114 1.670204380752684 1.6865231008499881 0.3025294720099098 1.450370320864763 1.9279849616359401 0.5069395204705186 0.04893077959444027 -0.027158300750510275 0.32387995592467894 0.011291066032499106 1.0571933811021155 0.016068061006575932 -0.005318481042904859 0.43715011000586895 -1.0237362232059264 -0.6785695360702609 -0.17779790397328565 -1.4983099226141199 0.1640925126525304 -0.6112627966313345 -0.5040600073149901 -0.05083650370521452 -0.8559064515724419 -1.0545345845692866 -1.2295120512637836 -1.1282535181539046 -1.0892318290026461 -0.04680875286245642 1.0257272041687853 1.3612458638497928 1.1713203435501742 0.27176225261192793 -0.2049300513788302 -0.12579194900536012 0.30752938021562 -0.11924902531113964 -0.013161308824602567 0.1744708790173009 -0.46235901770198146 -0.2741384680284544 -0.389735373936907 -0.3186917355644304 -0.3133493415158689 0.522509197993182 -2.9341414590304113 -2.585715974808709 -2.929776809470138 -3.0261660240702137 -3.2013124486095714 -1.5132663612134065 0.13436158950006113 -1.191578080975921 -1.4736173027473942 -3.6365614066873015 -2.098666910412156 -0.4238912885364221 -1.010595605537051 -1.909915651410257 -1.7374377537679473 -1.0705717417507543 -0.128998887260625 0.31547060678631345 0.41936370070634116 -0.347438861115489 -1.8183763287378143 -1.0229041802467636 0.49475775591753196 -1.3471890280856171 -0.6552389410019085 -0.057612253697700073 -0.2951786517105852 -1.7826505826423422 -1.4040187611474844 0.9376348210485177 0.910278023469341 0.7182642027686719 -1.3861331449229073 -2.397912323768932 -1.0485189515230737 -2.8182832388725547 
25 -6.827493576286835 0.9564861549272613 0.24692887963969834 -0.4457953211341089 -0.9423753327358747 -0.5186408504989695 -0.1006000273744045 0.16319615834183646 -0.22136646667673937 0.852254582069086 -0.11088274752455246 -0.10326564408513506 1.0813965611407736 0.10116059909266963 0.7586988548309072 0.6095032458328846 0.3452817696680559 0.07362672750778 -0.10888579280830843 0.20366254774295822 0.0837373922427576 0.1854885501037095 -0.38727164907580053 -0.2444521010995255 -0.40889504626304973 -0.44107721227643004 0.4281179855293207 -0.20187256595902467 0.5508499666663904 0.60541843498462 0.05356760709788825 0.6612066391760746 0.7172390652705883 0.5545385373674006 -0.04986680334459684 -0.40051069944859957 -0.037149085596450845 -0.10579032514354286 -0.6916300352294202 0.06906484957966068 1.2370710746944602 0.19615205916924897 0.8446964262946587 1.088258429879377 0.7965337637231563 0.6365751988537253 2.244800748069216 5.2206927620762915 3.7413566807064025 3.4816437133449853 2.0045383598078974 0.4722111183067353 1.5611473637621076 0.6757198123483681 1.1384808856862623 0.534106555148228 -0.31679783680598994 -1.690858666349044 1.3361102441788966 0.33098843649761334 -0.15975986102537248 0.012068278932787974 -0.251624335477281 -0.4219226854933326 0.2958320186138901 -0.18428251156100267 0.7427329244245371 0.41992012130322237 0.8272786579160755 0.32613683107304836 0.32687890660316643 0.1594020725732591 1.6719462615956269 -0.3438693141930095 -0.2403906364413921 0.4016276085820858 -0.3121871903026266 0.011242121964535261 -0.28030963883207555 0.2911859351295831 -0.16694761395795185 -0.6600439949839654 -0.3826247794925754 0.03503119239043771 0.10772086398871618 -0.4744993273497696 -0.44822796703641277 -0.5919564166426678 -0.37477307089977513 -0.6730600738762837 -0.6624047275171336 -0.5353275466140074 0.01876854029994661 -0.08286148204288807 -0.3440394668929579 0.27107639968756997 -0.2240245020584926 -0.012701466398570532 0.05076745548513813 0.2577191491169811 0.03264836302548583 -0.32171866530269283 0.21310172614283776 0.4000186369356471 0.17374358170336995 -0.029879857491768823 -0.1441682450627928 0.08949589176277534 0.013714108971892928 -3.7150661121269057 -1.4237400715049475 -2.4885672191611694 -2.883535494330161 -1.632921537478488 -1.9823797537374208 -2.5183109468922416 -0.2779882556904828 -0.5701759862329994 0.05110150535051848 -0.6877123594122735 -2.017847590064474 -1.3037705489416345 -0.22219694848494456 -0.6878677597389296 -1.1436197378986364 -0.9656102126376093 -1.0813386266082419 -0.24011083521827045 1.7689322070087852 -0.8628922483911095 -0.8189162692567171 -2.032931745795258 -0.9062246017783279 -0.9739698787835516 -0.7562532406319618 -1.2909658333912877 -1.2822691721460102 -0.5921701898302285 -1.9711459789309391 -0.4191201787612199 -0.421939913628228 -1.725703058244668 -1.147355897916793 -1.3625752431453906 -1.3097260601638585 
26 -2.958699304922302 0.05123626262851608 -0.48785788982013184 -0.24927790038924644 -0.06369771606570046 -0.008848582910640689 0.00643380655036058 0.9547233532730025 -0.28803503754585247 -0.24848124156765483 0.46613358632048113 -0.5680316236551642 -0.1743121774159199 0.4815895168469748 -0.16975232689692585 0.3065231203146932 -0.30215032968405664 0.018932413128214944 0.018226159101124823 0.3260414842146679 0.01320373925804949 -0.14402491708504772 -0.18137079769377504 0.2536932934974948 -0.4435314360012095 -0.8923477290794594 -0.21833602695311155 0.13277369447161988 0.7880991482603638 0.18358537069420539 0.05273094294333692 0.3615866627021972 0.35659461866030173 0.3376753639690051 0.6306137327342664 0.23918795134317347 -0.10836049393245878 0.5762579840842766 -0.0661340465459854 0.5066307297999589 -1.443958845704441 0.1478835192695707 1.5353717387222174 0.10136243839561013 2.61158903886307 3.823610576929731 5.361741344130038 4.979628919620151 2.333211312316456 0.09791137899726012 0.559436690299988 0.9799979318704284 0.8824694274826439 0.6567973904704614 1.7632282363966316 0.7312782654425614 0.9232986761174824 -0.28458807575821937 -0.6867747557253158 -1.0807507546567712 1.2473616302648152 0.9270145838975661 0.6447932061487228 1.1632388795939104 0.987573225755832 0.571107512856823 0.10387261239463122 -0.6428687332318244 0.5083981250770979 1.0384183171485497 1.4434951284756345 0.698871344797727 0.29295104381102754 0.19360272660133301 0.14028801350712863 -1.3530867251507621 -1.2997421545710681 -1.6313452576536212 -0.03940574748901721 -0.5492418233263476 -0.5753531284214426 -0.1084001911766844 0.27294061120636504 0.4808333353326858 -0.010973453224197247 -1.0337763440298253 -1.3312243534171078 -1.4348028358100469 -1.3829856354891241 -0.812202919773675 -0.3579720966424257 -0.5713893353172815 -0.913495682169562 -0.49821860743362195 -0.6715616944316743 0.41783731354300946 0.13682704237854618 0.24355386328120132 -0.0013598285104490238 0.20159579843496622 -0.3980317381933251 -0.2462139614651397 0.9860821937435683 -0.3046843595013189 -0.848047693086783 0.08200427069711044 -0.11857447257605853 -0.10174389593635699 -0.3459274191623366 -0.21454291847448642 -0.46179999128102467 -0.017063925585237314 1.2473082247764782 0.01187359189841538 0.5152626597359807 -0.6074046919366182 -1.9793912303998937 -2.7237915050287675 -1.0779263996207271 -1.198903981599643 -1.123468751306582 -1.041805226518225 -1.8223119861431487 -1.7976609633324476 -0.42691728492536624 1.257497686579382 0.8468031663323565 -1.0665995497469347 -0.07044065274590004 0.14796227982830057 0.8514881217597927 -0.45884476379088696 0.07463469966375587 0.4746505045028946 -0.9389387783911227 -0.16487474357348214 0.6336378383667216 0.43403791241256384 -0.9218923214999297 -0.28513281352825653 -0.5997095312232898 -0.9793887296538081 -0.3567057731283718 0.7296668428320507 -0.3653094623139137 
27 -1.4746774966496354 0.4351915878304702 -0.6953981596863947 -0.5601615205125656 -0.6684124441819126 -0.2382105653985273 -0.0927352506514525 0.2783201964022063 0.7056548416553049 -0.2016237489829364 -0.19937773311595922 -0.33829984907685423 0.14610554655311622 0.7980503699167568 0.5926096822605854 0.5699962217440147 0.02569357906879309 0.34255527075128633 -0.06547065308722333 0.6410469947826718 0.9584212327752109 -0.2053302519496877 -0.04998694862913301 0.6604750477459739 -0.3544907133626851 -0.3965844081054021 -0.6178915937819155 -0.358544500182427 -0.07930595522496742 0.5356621695622259 0.573330221386959 0.12449782427476684 0.2587599269531601 0.43225240043420887 0.316106728036257 0.13157437554076706 0.5320848444847327 0.432678479494784 1.349862581188683 1.1367087222715937 0.9187133379530071 2.0452903355997467 2.1843303082125085 3.79334005387863 2.0580588396483566 3.6504376003342984 2.2419109165633495 1.2762920274402387 3.1938703425499435 2.1619145064763114 1.6341245610588153 2.189776519310731 0.43107632885574865 0.11139674825483936 1.0347843139307713 0.9391337351918226 0.1795621348993302 0.022305564665331394 0.7055947611934266 -0.16899101891147242 0.6992898691149471 0.7743584244033138 0.2850516711259697 0.6942564933732032 0.8500775074497048 0.29038132058354565 -0.9952509601611945 -0.5778346958222598 -0.50467385841827 0.22276916144973313 -0.2825904842161352 0.2221800574846791 0.04746744841741366 -0.07324473923581179 0.15628621061139483 -0.04553104048045054 0.21785716409276593 0.06888684614901809 0.3489384004184929 -0.26552623909147205 -0.7780413588886824 -0.19107220484163864 -1.0180402564861137 -0.7063098349627602 -0.16169877543829597 0.008236689353348805 -0.01484832704066542 0.29390115569002523 -0.5115164653779881 -0.450580867817007 -0.12792321511870497 -0.2034712406616181 -1.3222736428388628 -0.2950036296083356 -0.25906251111480244 -0.2673925782747007 0.15874816388200869 -0.24094486527443582 -0.5639591791847987 -1.076254988634612 0.4689578945473424 -0.6329797882354562 -0.5558065990780177 -0.22955813672107067 -0.5712688057490797 0.2284837281817542 -0.6426052774055566 -0.32069684711641366 -0.24766575333507312 -1.4787774002082335 -2.260027381606959 -0.650899744936828 -0.5446640101900496 -3.399145399563297 -4.041697474228591 -3.341275273095987 -4.4101357123544265 -0.9358661849096963 -0.9320890730892716 -0.49570715610713606 -1.3749132886355995 -1.3623579153333232 -0.5626092609138433 -1.5581535917175526 -1.195889502658241 -1.5655233594773306 -0.7240907517199634 -0.7750537899586594 -1.9238531568096406 -0.4535076707139855 -0.38001833346167924 0.13027817685942403 -0.06179408322344862 -0.6041297218727236 0.932236338767496 0.20210353028929445 -3.0709302196260353 -2.0354818965213504 -1.897161113467192 -2.600168986742978 -4.063446768955048 -1.4825279400411822 -1.5046066939968818 -0.4267162499687466 0.2583498944565475 
28 -2.166963095368822 0.6670227928409266 -0.28209840285276777 -2.0629835946606487 -1.613750864495832 -0.7332061922477537 -0.3388943396332731 0.47319018723356626 0.5736359548993233 -0.5596697439047422 0.5034681068304154 -0.3315582613000109 -0.6171046404652419 -0.8787417344620794 -0.5164532735992651 0.47148332690089306 0.10968301104067754 -0.4378860349917681 -0.3532274404720551 0.517738266368426 0.014207486339253492 0.7142748343691643 1.0043810994937354 0.8421403788225521 0.5550658729732117 0.1784517623132618 0.23618387552012216 -0.4312733148585429 0.35882340389821493 0.2967196749117031 0.2244702190664616 0.4059789765845237 -0.04979177690148484 0.3318908622970474 0.04552981732770331 0.2312319767884652 0.34089873738114457 -0.11891890996859147 0.671326557413369 -0.3799575142286986 2.538224800385266 2.1862039470042287 2.1631471583737483 5.319022371399585 6.909891395800978 4.167981923977514 3.8023036217204376 2.913326279083457 2.3218772753622363 0.7843723322464514 1.9193602769212021 -0.4544622359884519 -0.4957138298646058 -0.7364109957858579 0.3229900036177116 1.2242330192930744 1.207314529250832 0.2910043078586412 0.6564910533820727 0.47977740632867305 0.04560565953182805 -0.035374682345454496 0.5972183330887952 0.9385280842074738 -0.33650525837384804 -0.29136776223522454 0.14593242412429364 -0.42926949002873804 -0.30573219381339006 0.2741725727250741 -0.6556169578084367 0.09432822895084363 0.11382969993967838 -0.05462260726278707 0.33281990155693814 -1.1573207042191918 -1.0321073221845676 -0.558836712210714 0.63522670600829 0.15645708895301327 -0.34915038565728623 0.37037235733056983 -1.6284708494921885 -0.7743577361746053 -1.2711078014760395 -1.062803382454264 -0.07702742450319013 -0.01730106377322803 -0.061523275506456115 -0.3041308065478534 0.9919628188907447 0.6392615216353023 0.47363548505156994 0.23656956170691118 0.2273865889458315 0.2792831334007666 -0.21574842231980113 -0.678917721250346 -0.6919525000880076 0.6087856598250697 0.4897923821119598 0.40480555330579576 -0.3773505182071356 0.2852822235290606 0.788280683985644 -0.10822996412974903 0.07913365944730387 -0.3385983088586448 -0.15378246151210764 -2.7477888380180695 -2.673511783087965 -1.7293741750439806 -0.21717505058813164 -0.36917369351425044 -2.4789536492199886 -1.4868773278602385 -1.3086695698107147 -0.7749054051257381 -2.209696555604987 -0.5022415961935158 -1.6715966541705556 -2.0242698552324905 -0.9477416186712292 -1.3853757252479222 -0.17766802882025234 -0.32591856177067086 0.7936096713923574 -0.49302698991831867 0.6898127714235014 -0.3600575327303901 -0.5848322428894958 -0.03057324448925744 0.7721659243773673 0.7434502715450118 0.1292021562930078 -0.32582669638278594 -0.4684038262420154 0.623585078383847 0.9261345966963092 -0.9035994418076138 0.20109449340296415 -1.0080113480413193 0.5122398389594014 -0.5909171793572309 -1.754988950619909 
29 -3.446319182620993 0.33568868165141846 -0.4792670136059625 -0.40667892240983966 0.023461585016161503 0.11766280427528969 -0.14759179431538083 -0.10432591748273755 0.4579623486369447 -0.06712582350991105 0.18892846091062324 -0.6841668630396256 -0.12060926029674482 1.1090482525787413 -0.07833777298597282 0.3505920574632395 -0.1550327556536011 0.13362197068747847 0.09959590824005014 0.3199232759555099 0.3448096525066201 0.5063138648174329 0.4087505929660697 0.17413825280994336 -0.03437348190159366 0.9198721311557148 -0.015357760568071633 -0.28308236861400704 0.09025631161537734 -0.6734311129091567 0.4231815283782089 0.8999646660158063 0.6425789003147505 0.49774671909428553 0.7132882338235299 0.2747176257143903 -0.09442616188518305 0.5153047609293082 -0.4790965073593871 2.346705991954565 2.251605997239321 2.707438868789038 3.405416644761666 3.770124680551343 4.902142473114046 3.2770595511811362 3.0118848272955443 2.27808046202051 0.6046736190986235 0.31424158904523614 0.705102529469981 0.44828477304491476 1.166982213057423 0.6938062166093603 1.8527977986242816 0.6145547500840404 1.4690599664411474 0.2167101061389281 0.5947299234943285 -0.7813699944466039 0.8194585096235965 0.4026719931934336 0.7240334695619643 0.40693432799146495 0.3187920871956999 0.753073443929439 1.12000346987118 0.8573851813008488 0.9505100753393412 0.42486335915138124 0.41613788675503927 0.2834573541171878 1.406099152382985 -0.32394915407990343 0.1501637703396886 0.004242993393876904 -0.1569214887634771 -0.8307600996367412 -0.9368256773593778 -0.9228043065287714 -0.2610853718046948 -0.42481233527926343 0.11022358191358714 -0.3535115864692657 -1.0618370507211603 -0.5775137505896862 -0.1452861952595032 -0.913545507433839 0.7825601058650886 0.09600533990338941 0.3166037270022831 -0.8382952123760674 -0.37299756476148915 0.01932765232761202 -0.21987618066265263 -0.22955516417976327 0.020148854898869698 0.6188037954116876 0.10833717884086544 0.4272444185203776 1.0853556850570154 0.9118233283627416 0.3492992465710575 -0.09748868523841936 0.15006481651993267 -0.2973461298671488 0.6904280114491181 -0.49554789246413705 -0.6858599175937692 -0.289995287603565 -0.3294565142876693 -0.24186985519096055 -1.2338108373926195 -0.804675341372438 -0.6535158926172687 -1.2202168828901312 -0.809024034929102 -1.074328000107786 0.3257117521175288 -0.5162103663367494 -1.654237290392041 -2.1229990953403606 -1.8628625953165598 -1.0528353286512175 0.9329362779856033 -0.21369965419063636 -1.400650416432651 -0.2514137492953018 -1.5029308587406056 -0.42423130623920396 -0.40391531225461097 -0.6323078210546469 1.6332740111341113 0.013859294433179991 -0.3913595205156816 -0.8923468199065084 -0.953200047779692 -0.6825403899661565 1.4900224907716206 -0.5978826116247771 -1.7229866690144617 -0.7130950023702949 -1.1775994732489505 -1.7444273848193346 0.40813622035251973 
30 -2.015007354464123 -0.1117352002584066 -1.448713114869508 -1.2105643420602419 0.29894030384108006 -0.5508636468042576 -0.6600549782322187 0.20224349216091053 0.3700789047037598 1.605097629431366 0.28060519411988305 0.5970859571549969 -0.4124233080870824 -0.4673063573229741 -1.218223560505485 -1.0911464101910278 -0.028153413733462147 -0.9034331133581948 -0.8244802900842975 1.4820313907369067 1.4165640376868653 1.2076490390208674 0.9266369186620249 0.5243399685878827 -0.031823337716956585 -0.5938906299446728 -0.7946189544321188 -0.5397303609885544 0.7914971390936889 -0.14125756364949643 -0.49937188960655665 0.06881827913627017 1.3493420828743914 0.44741321758310715 0.3349533142515548 0.11266917480000115 0.35530105894027325 1.5116165351480257 1.5447117456806412 2.1865649104751594 -0.18862841971801014 1.8338483081987793 4.9829193370957805 4.276702697195377 3.8537192871370567 1.8997530955279607 1.0855013776110427 1.0594443362836394 1.3246360982029994 1.1324025915626066 -0.05758759969716864 0.9080383080012504 0.32774244197911745 -0.12079733292210007 0.957867288119316 0.9583410168078026 0.39942894108801996 -0.518432912085184 -0.4839442545057387 0.11639855083646719 0.49084931968422385 -0.7231154309950536 0.5880577628554211 0.3007813742619709 1.0389957764261326 0.6858639952381156 -0.3280039691581648 -0.44606783224219626 0.8875432267155388 2.423888580923365 0.16642298130875613 0.7300686531815221 0.9691812599143906 -0.6484898417923733 -0.44759714700663583 -0.6808242590572899 -1.2917490606560547 0.7472339108075698 -0.027148528604857176 0.6519169399954042 0.4906273716775148 -1.3638451894329826 -0.13157856299975518 0.1547219151658121 -1.0231921881817532 -1.6032771718679297 -0.6639459656367327 -0.6050503852742654 0.5393819141147334 0.44914407580387633 -1.1243237477197143 -0.7826841750460533 -0.4990022124841406 -0.10853896194556338 0.7187848915755036 0.6041597508165047 -1.1695752286522425 0.46109962983623703 -0.11165607417675454 -0.9614498397113697 0.08895138394532738 0.4494162082598369 -0.11967130508604001 0.13655093961007952 -0.11104410767987993 -0.9234710248366689 -0.32810468769244716 -0.19136827370133394 -1.4671445433112977 -2.0155928322958014 -1.3081408547404096 -1.8991568510202574 -3.3236339950614298 0.5552790267961006 1.4848879000341575 0.2886453121412472 -4.328032493849625 -0.05676127611058178 -0.6119514123623522 -1.8908912322673797 -2.6786716394761116 -0.32088289206074216 -0.6438609823473712 0.23130981222028618 -1.41649250133177 -0.17991706487018594 -0.43438621873969746 -0.5511617206688735 0.734160557906721 1.0101003565805733 -3.7342481333293795 -1.9054627633341388 1.020856003517203 0.9863370358493775 -0.6435293642302677 0.1651120518488344 -0.664141591874787 -1.1063045618297367 -1.8187171635187565 -3.944965144628828 -1.131428554667862 0.29593392905309057 -1.3486249841002425 -2.3579756219483308 -0.5264133395632753 
31 0.2888637714827683 -0.21958086715864453 -0.9904569352300941 -1.1296350837874445 -0.5379844637263382 -0.2257841507838049 -0.2716390360293243 -1.1594575607463267 -0.6314378832507177 0.014421668368191885 0.12230346606447896 -0.9142802742293313 -0.5016288006171961 -0.20351172493558742 0.35816706776983465 0.5550678697902595 1.1628142318346364 -0.686086762930975 -0.5780155623390024 -0.15271718104876375 -0.4597069980857524 -0.5053097946596912 0.3398168211540227 0.10077844613866552 -0.18070237948421625 0.13835581376197442 -0.47155550585122513 -0.030763949110720376 0.5149418873941076 0.6000915997454654 -0.042693372837158905 -0.06621975850765983 -0.07097602162848153 -0.04583406015126296 -0.3909004098137065 -0.5120113602826466 -0.8559175096419286 0.7875951238365037 0.6321288888097539 -0.14056567833090935 0.7815151170610369 2.15711955817081 1.40277123879727 2.770969427020346 0.3870024576792083 1.5674118131574062 1.2330988984676272 1.9231826642080128 0.18866256608045018 0.5834452838058749 0.35595583002762105 0.488128234667649 0.26726537714168097 1.1481824947933588 0.12933822840204745 0.14904726720427847 0.4756999006141135 0.149091708970692 0.6422255838232902 0.09852904881477056 0.5482950863199874 0.1553353095772903 0.8087307090268996 -0.1214851080952445 -0.6318390939391356 -0.1600101596255708 0.6844159927195167 -0.10667195296866323 0.969315645352847 -0.5090466066926082 0.21954867070917253 0.20683406097837137 0.6407503994414023 0.06071929767952594 -0.4226846431154895 -0.8473205415256334 -0.7885520067505096 -0.5237362722948049 -0.32748115119989374 -0.34286174507897105 -0.6934652856449351 -0.48984279040286116 -0.655720155531469 -0.7667402563747252 -0.28674641712121834 -0.1806177508986869 -0.1030948752524038 0.17242905884787588 0.6685528657610424 -0.5626829738891127 0.09141949270855311 0.4673989211641504 0.24886286643110547 -0.2208433538776767 -0.06517388561298595 0.07557544989173187 -0.12642281249350068 0.1011401608250516 0.32953424371621803 0.09830317037042499 0.39542974510730566 0.017623669000727076 0.5287664473383574 -0.15801410741194813 0.03131347702107093 -0.44021246247229634 -0.31818462695422944 -0.2775965074397123 0.24170428234667904 -3.0714899715326576 -4.363416323216686 -3.356754695424917 -1.4905109021288927 -0.732181645821108 -0.37088141052367146 -1.9540085649033114 -1.9309781835533297 -2.9512849422172733 -2.473123344445959 -1.1856870569702036 -0.06369850489236982 -1.5787496542158026 -2.0501694908487513 -0.5936726839550023 -0.8980624747626178 -0.4583317980230097 -0.129855806583247 0.009289323340353428 0.4111740987701379 0.2812998489401489 0.18311042704451921 0.7934750566384449 -0.08234106410361217 -0.7601627701192132 -0.6417553936220957 -0.5078971382875119 -0.9232748167649419 -1.0154944085841955 0.11548978982271295 0.081377526424555 0.36086860351544475 0.42785068329054093 -0.6285119875269227 -1.1022847403507956 -1.245175128006279 
32 -1.541730687801651 -0.010853605829394791 -0.09425487251696961 -0.9762209796646243 -0.1282584362553132 0.6466591277213545 0.905310163844973 -1.5463565419707976 -1.3285505876793888 1.0215160146470694 0.3343983223838669 -0.37112218022379023 -0.06649178792919225 -0.33212455430422305 -0.4037865885981622 -1.1690592574162768 0.041738581534974804 0.7740618719111817 0.15990429035684836 0.10367344853563067 -0.7444161122155579 -0.20758535878839812 0.1028110071676615 0.8364647314728612 0.9805453323884181 0.6047344287739093 0.5778109887654336 -0.3129240418397988 0.6727797112695534 -0.07106165301592214 0.07258088981037057 -0.19638018729063839 -0.024051770790969228 0.5363330778978359 0.011219073050131596 -0.11955231274557693 -0.18245513714415484 1.8499513906676266 1.9895041342038633 3.471942840808922 6.746172209257361 6.36046132228919 4.256806789792751 2.602763642973486 1.3719147960460845 0.8573027763358152 0.8339533561708411 0.4772158098632895 -0.03185815549241333 0.5838613837561113 0.07940687056378373 0.6073820635512457 -0.5005486781772087 -0.027612718013203197 0.22092009304982574 0.7750186217759604 0.44202988196655224 0.8816171411599341 1.4202646853662388 0.2909067227067618 -0.36826949389486763 0.5264540593930497 -0.5384171476293663 1.14458828098806 0.522937508608539 -0.5265847113578639 1.372088926795619 0.8256520578112903 1.2848136297288852 -0.25616158168280434 1.3930784009243093 -0.20156532787231246 1.2693335205291592 -0.8320645044381348 0.2778348256471519 -0.022868446530373315 -0.45302545955204065 0.14868246910338162 -0.9889542026847169 -9.333478342880078E-4 0.07788558699192237 -0.19619040073156155 -0.7554750449842913 -0.07591847954036948 -0.1337491111926775 -0.1347641679433041 -0.16441583985806918 0.2755598752566899 -0.10226629673087771 -0.6774931220983065 -0.010848617252436903 0.5868183373570918 -0.8451740635280106 0.37058712047514136 0.023481829505215487 0.5846516065924819 0.78288557973572 -0.1325044617218261 0.435470552406849 0.25628762752667655 0.21163716329409102 0.2718071440858493 0.8383424152640978 0.4271238189472949 0.5276123467511062 0.3809750492609535 -0.8235027540661815 -1.0484985532544862 -0.5323487517774758 -2.9746028769891204 -1.2980422623539953 -3.2136774248570235 -2.8501056267014966 -3.005137239172689 -3.237403957337091 -2.3508159501138035 -2.122282575165115 -3.0281436809952003 -1.419381149393826 -0.21839258040767365 -0.16074334373882723 -2.582577247728764 0.3064360325135532 0.14687164327102675 -0.10536954826832418 -0.23259496407280567 0.4888096016186567 0.5324785494637546 -0.4294184100454735 0.6683266940819771 1.1439880849783914 -1.1211777852885385 0.4733438399756878 0.7251663312727042 0.5153625733311463 -1.7053571927112459 -2.294675444601215 -0.6954002021519263 -2.2386755483862535 -0.7638191484104012 -1.3212860552299979 -1.0696320087169502 0.0877521274073669 -0.049582643012408806 -2.4845225728750653 
33 -1.5629496210526461 -0.3818318425718073 -0.48973191900145674 -0.7013500519839607 -0.5234305011094225 0.22230705514277285 0.5769761068773072 -0.24871872019292096 -0.17880163077703728 -0.3084793150070766 -0.08903480505259748 -0.04497482158230212 0.240359982194687 -0.08913684298562627 -0.03485785911600693 0.03274841979543008 0.27562645067233893 0.09602994284434621 0.17356086025574582 0.7975248090532349 0.7916332850956875 -0.4351764981773691 -0.47284875652202146 0.2620995801063418 0.4925477944102912 0.18776936895193772 0.09678521505051951 0.2506918398446828 0.715842687121805 0.2441302621636006 0.058479173682236846 0.4595488713631466 0.135001259677837 0.4581271668150281 -0.19365974031421967 -0.0011728413721966563 0.2580228834095749 1.8926047987962145 1.3981039692608677 3.0031117527067974 6.164902178791053 2.6380157411512353 0.5930384561433251 2.964506893280754 -1.4167899483121449 -0.2626455539056218 0.9910306071836187 0.330914794910123 0.3481514965056477 0.9713620316041714 -0.014180561113278173 0.5173587455802866 -0.25309803602688385 0.5043531138831153 0.2454234213456447 0.6039001513630264 0.4550579047429505 2.8596763199693377E-4 0.38950072460345153 -0.8414752235264757 -0.35006008650018183 0.20927748878415414 0.944210063548761 0.5669932741912391 1.807876913536143 1.2445952479969058 -0.39571943088606554 0.5416369282811705 -0.23488008402229188 0.4739356469531456 0.6811835406691633 1.6463654695997723 2.7590820645796055 -0.5722961930685418 -0.550637567309962 -0.09599802397725815 0.02413996241447544 -0.33044412470216755 0.16048041040253086 -0.0677422176400787 0.2640481896153875 0.2601316165603947 -0.48475693639959344 -0.46508117141755895 0.4477490858942934 0.5321060821451526 -0.016313006221342345 -0.7165268471522965 0.07397944395603427 -0.020795883823214213 0.2056322968577113 0.10498026479842112 0.5159154857842564 0.552304391452518 0.7907063380821706 -0.20017938029176768 -0.60019557398033 0.7049893816630678 0.5006427400967866 0.1512024140183999 -0.12979025913477318 -0.23637277253835676 -0.020802995065841354 0.24102430243450954 -0.8970785375749016 0.052762381195689205 -0.4792185802862502 -0.6920672607927123 -0.455804357119675 0.8848534393512945 -1.056299450145674 -1.29277969113254 -1.6884799753072948 -1.6650293229833324 -1.7972472609665013 -1.927910973325244 0.04585726578425321 0.2546032132221581 -0.8942497945472114 -1.2142841380615612 -1.9400982011533836 -1.9693354599088408 -1.803087442297968 -0.18198010596140884 -1.1659025432597612 -0.12041512316729712 -1.4917378937081454 0.2869298771572444 -1.0216026958239046 -0.9925124710327424 0.22311177297722867 -1.2754122579834313 -0.2695911452358642 0.2239444865209683 -0.7899684678943394 1.1329045440644987 -0.3057929825118626 -1.236319002960533 -0.3576146433802255 -1.253334104023752 -0.12407109763529153 -2.564968197358878 -1.909712745867408 -3.4757729802734745 0.27676138029718106 
